node_id,e0,e1,e2,e3,e4,e5,e6,e7,e8,e9,e10,e11,e12,e13,e14,e15,e16,e17,e18,e19,e20,e21,e22,e23,e24,e25,e26,e27,e28,e29,e30,e31,e32,e33,e34,e35,e36,e37,e38,e39,e40,e41,e42,e43,e44,e45,e46,e47,e48,e49,e50,e51,e52,e53,e54,e55,e56,e57,e58,e59,e60,e61,e62,e63
symptom::mệt,0.07618504017591476,0.19191628694534302,0.2512861490249634,0.323304146528244,0.4287072718143463,-0.42738020420074463,0.23076501488685608,0.07794920355081558,-0.15248920023441315,0.240809366106987,0.6636273264884949,-0.031462911516427994,-0.520903468132019,0.1559164822101593,0.3798670470714569,-0.09104796499013901,-0.06871429085731506,0.11825135350227356,0.10869882255792618,-0.0027442951686680317,0.1818126142024994,0.26433178782463074,-0.5787537693977356,-0.6227633357048035,-0.434042751789093,0.3512631356716156,-0.04056915268301964,0.36590710282325745,0.21431678533554077,-0.4056280851364136,-0.16892005503177643,-0.11114977300167084,-0.04471582919359207,-0.3615768253803253,-0.048781659454107285,0.060450561344623566,0.39512112736701965,0.5741809606552124,-0.13830046355724335,0.046321138739585876,0.2881971001625061,0.3532828092575073,0.2644152045249939,0.107356496155262,0.33572760224342346,0.3587172031402588,0.1776476353406906,0.029897818341851234,0.6805592775344849,0.385505348443985,-0.3081042766571045,0.331964373588562,-0.169161856174469,-0.823887288570404,0.7482818365097046,0.2663975656032562,0.35123246908187866,-0.7417824864387512,-0.21984770894050598,0.1921851485967636,0.12556272745132446,-0.04497065395116806,-0.6494544744491577,0.3392156958580017
symptom::sốt,-0.26490533351898193,0.27652451395988464,0.4173484742641449,0.36297887563705444,-0.008225725963711739,-0.4518432021141052,0.057937655597925186,0.0521831214427948,0.005047451239079237,-0.05293138697743416,0.2606475055217743,-0.14395050704479218,0.115402452647686,-0.22967849671840668,0.2501862049102783,0.5003857612609863,-0.43421056866645813,0.5292727947235107,0.28866487741470337,-0.11789768189191818,0.25589001178741455,0.7363611459732056,0.446015328168869,-1.0062536001205444,-0.1538742184638977,0.20810775458812714,-0.24219907820224762,0.6504648923873901,0.1396595537662506,-0.06686459481716156,-0.1462802290916443,-0.19728784263134003,-0.39874067902565,-0.7296831011772156,-0.09711658209562302,0.16314414143562317,-0.2577107846736908,0.17046231031417847,0.6119212508201599,0.1283034086227417,0.11706940829753876,0.2937542200088501,0.2635972797870636,-0.2873744070529938,0.255687415599823,0.18557417392730713,0.027209892868995667,-0.2960813641548157,-0.539733350276947,-0.018010413274168968,0.5650469064712524,0.10676305741071701,-0.5030716061592102,0.6776360869407654,0.13717146217823029,0.2532409429550171,-0.33386334776878357,-0.5460278987884521,-0.21262672543525696,0.1431863009929657,-0.08945374190807343,-0.14264050126075745,-0.3882177174091339,0.2640749514102936
symptom::tiểu buốt,0.1580723077058792,0.5836023092269897,0.9285119771957397,0.11824124306440353,-0.07181376218795776,-0.7007504105567932,0.054285455495119095,-0.48219648003578186,0.057267796248197556,0.43456077575683594,0.694321870803833,-0.028565512970089912,0.047878798097372055,-0.452770471572876,-0.23970256745815277,0.5139362812042236,0.03487348183989525,0.38204991817474365,0.1895303875207901,0.11120382696390152,0.5479958057403564,0.4463508129119873,0.2634080648422241,-0.9761103391647339,-0.4226568937301636,0.8710565567016602,-0.5704103112220764,0.2981735169887543,0.15596839785575867,-0.30316823720932007,-0.21731916069984436,0.2124854326248169,-0.4772985279560089,-0.2128313034772873,-0.1390966773033142,0.13468842208385468,0.07735414803028107,-0.04706699773669243,0.5547032356262207,0.23792704939842224,-0.09908780455589294,0.5996338725090027,0.05022379755973816,-0.29061761498451233,0.23233313858509064,0.08043816685676575,-0.3332812786102295,-0.5247326493263245,-0.48056384921073914,-0.10801874101161957,1.0654852390289307,0.07920227944850922,-0.337259441614151,0.5419380068778992,-0.09613325446844101,0.30172309279441833,-0.23402845859527588,-0.16113236546516418,-0.43683767318725586,-0.06378670036792755,-0.10949856042861938,-0.032445017248392105,-0.045505277812480927,-0.023757942020893097
symptom::ngứa,-0.350508451461792,-0.7684656381607056,0.052213896065950394,0.7899863719940186,0.5139949321746826,-0.5318254232406616,-0.5394651293754578,0.2684674859046936,-0.4241328239440918,0.8174439668655396,-0.14816811680793762,-0.617263913154602,0.021848492324352264,-0.3328346610069275,0.04901929572224617,-0.49117040634155273,-0.6365017890930176,-0.2075771689414978,0.20790185034275055,0.41097012162208557,0.5315163731575012,0.0499400831758976,-0.1791127622127533,-0.5507563948631287,0.03535668924450874,0.5287152528762817,-0.5262667536735535,-0.1829126626253128,-0.005452107638120651,-0.3366246223449707,0.17186711728572845,-0.6273478269577026,0.28069719672203064,-0.8031839728355408,-0.1225399374961853,0.28900793194770813,-0.47382596135139465,-0.34296444058418274,0.4975045323371887,-0.3444483280181885,-0.5941979885101318,0.37545958161354065,-0.39149436354637146,-0.22599150240421295,0.10000210255384445,0.23139835894107819,-0.17594709992408752,0.10356918722391129,-0.5409018397331238,0.11353033035993576,0.12946027517318726,0.5176965594291687,-0.08655501157045364,0.45987436175346375,0.5132085084915161,0.4097786545753479,-0.7657877802848816,-0.9316865801811218,-0.2556186020374298,0.1506987363100052,-0.4625140130519867,-0.7144617438316345,-0.059144675731658936,-0.21658405661582947
symptom::buồn nôn,0.143241748213768,-0.07660830020904541,0.16372394561767578,-0.0928787961602211,0.3360633850097656,-0.6429502367973328,0.45519036054611206,-0.20433734357357025,-0.15766361355781555,0.27970805764198303,0.3670841455459595,0.5920293927192688,-0.08570265769958496,-0.35472485423088074,0.38426506519317627,0.07130836695432663,-0.18278081715106964,-0.3424547612667084,0.1377238780260086,0.24130848050117493,0.8072565793991089,-0.20015449821949005,-1.2222728729248047,-0.71453857421875,-0.2061910778284073,-0.09060294181108475,-0.5917748808860779,-0.007138575427234173,0.6355881094932556,-0.48546189069747925,0.05202968418598175,-0.04499347135424614,0.09990707039833069,-0.5936896204948425,-0.3467789590358734,0.326603502035141,0.05638933926820755,0.06864693760871887,0.43832170963287354,-0.015161683782935143,0.488982230424881,-0.12200579047203064,0.4298745095729828,0.14954756200313568,-0.2558973729610443,0.4338938891887665,-0.1799798607826233,-0.598031222820282,0.5334113836288452,-0.24850015342235565,0.04909539967775345,0.1935594379901886,0.1283978968858719,-0.4828992486000061,0.6482473611831665,0.32722973823547363,0.45620226860046387,-0.5983256101608276,-0.4161148965358734,-0.1881624162197113,0.04200001433491707,-0.34609684348106384,-0.5957004427909851,0.6612151861190796
symptom::tiểu rắt,0.09519166499376297,0.47272583842277527,0.8989249467849731,0.1976056545972824,-0.4361742436885834,-0.6018853783607483,-0.0798541009426117,-0.3495672941207886,0.05961962789297104,0.2025527060031891,0.7484378218650818,-0.4441688656806946,0.024919018149375916,-0.6913751363754272,-0.018519286066293716,0.3442475497722626,-0.18804560601711273,0.0581427700817585,-0.12633191049098969,0.4145873188972473,0.22796666622161865,0.44854816794395447,0.060295138508081436,-0.9030948281288147,-0.44437819719314575,0.7020369172096252,-0.5735225677490234,0.4312337636947632,-0.0409046933054924,-0.24794721603393555,0.030346348881721497,0.06390107423067093,-0.5945257544517517,-0.638883650302887,-0.15024703741073608,0.27849096059799194,0.10678546875715256,0.06860461831092834,0.5839272141456604,0.5312228202819824,-0.29892823100090027,0.5757215023040771,0.4233400821685791,-0.37404531240463257,0.3788413405418396,-0.13891103863716125,-0.3941427171230316,-0.2447487860918045,-0.6286781430244446,-0.5076054334640503,0.7388732433319092,0.23590251803398132,-0.46602123975753784,0.19400811195373535,-0.19183769822120667,0.19678892195224762,-0.5003988146781921,-0.24167370796203613,-0.4352368712425232,0.10903534293174744,0.09372152388095856,-0.11942248046398163,-0.21677210927009583,0.02552374266088009
symptom::đau bụng dưới,-0.05403365194797516,0.12858054041862488,1.0177421569824219,0.13616953790187836,0.11484018713235855,-0.8556451797485352,-0.3245622217655182,-0.23112428188323975,0.2724882960319519,0.15879316627979279,0.721325695514679,-0.3263450860977173,0.33331212401390076,-0.2784682512283325,0.3149016201496124,0.48318350315093994,-0.1848180592060089,0.37024950981140137,0.21400795876979828,0.12880012392997742,0.4158554673194885,0.5529288053512573,0.2892722189426422,-1.087364912033081,-0.5223987698554993,0.7183756828308105,-0.611694872379303,0.4197079539299011,-0.0011324227089062333,-0.09174607694149017,-0.3417060971260071,0.23940055072307587,-0.7785298824310303,-0.3936809301376343,-0.0689665898680687,-0.09559894353151321,-0.31216949224472046,-0.11191178858280182,0.5385849475860596,0.18011751770973206,0.0515214204788208,0.32513439655303955,0.3106423616409302,-0.07976414263248444,0.08508969098329544,-0.10417522490024567,-0.29700711369514465,-0.4649971127510071,-0.42037662863731384,-0.2465793341398239,0.7809909582138062,0.32064810395240784,-0.4821646213531494,0.5046614408493042,-0.012780346907675266,0.31619763374328613,-0.4289722442626953,-0.23767930269241333,-0.3135961592197418,-0.03317795321345329,0.04960605502128601,-0.1331375539302826,0.19803373515605927,0.05929458141326904
symptom::đỏ da,-0.2601100504398346,-0.676526665687561,-0.03410454839468002,0.8295223116874695,0.4283604919910431,-0.7414483428001404,-0.3988824486732483,-0.021736500784754753,-0.30827203392982483,0.5848063230514526,-0.13025543093681335,-0.5816360712051392,-0.0022034142166376114,-0.7380736470222473,0.0661977082490921,-0.17326180636882782,-0.8765685558319092,-0.05055827274918556,0.3230137526988983,0.9170932769775391,0.59597247838974,0.27137291431427,0.06343141198158264,-0.589235782623291,-0.19179996848106384,0.4393627345561981,-0.46865344047546387,0.05477349832653999,0.12554152309894562,0.09451945871114731,0.30812355875968933,-0.39447641372680664,-0.28316041827201843,-0.4647740125656128,0.09799590706825256,0.3465369641780853,-0.09787894040346146,-0.6054016947746277,0.6152342557907104,-0.20756512880325317,-0.6789336800575256,0.48047542572021484,0.026805376634001732,-0.21914167702198029,-0.05575011670589447,0.06306545436382294,0.16228140890598297,-0.08226906508207321,-0.4892621636390686,0.16336874663829803,-0.12388543039560318,0.1812593787908554,-0.5272576808929443,0.43865150213241577,0.27203264832496643,0.3705100417137146,-0.7371779084205627,-0.9345776438713074,-0.22134087979793549,0.3163040280342102,-0.2944704592227936,-0.3462204933166504,-0.0156675074249506,0.20273731648921967
symptom::đau họng,-0.37309029698371887,0.5274034142494202,0.5262458324432373,-0.18677613139152527,-0.2763887643814087,-0.8070871233940125,0.1589229851961136,-0.21919645369052887,-0.01861891709268093,0.027104372158646584,0.8033096194267273,0.27540573477745056,-0.1449662744998932,-0.5095739960670471,0.524163007736206,0.04134565219283104,-0.22035744786262512,0.10989255458116531,0.024860218167304993,0.21029144525527954,0.3628740608692169,0.5470239520072937,0.30464571714401245,-0.28071820735931396,0.0736987367272377,0.4297325313091278,-0.08062749356031418,0.533715009689331,0.7142402529716492,0.1607738882303238,-0.3333268165588379,-0.3210256099700928,-0.5144925117492676,-0.9497875571250916,0.5219017267227173,0.5717095732688904,-0.4641130864620209,0.045041244477033615,0.13598741590976715,-0.18734385073184967,-0.25802403688430786,0.7787493467330933,-0.09185667335987091,0.10514859110116959,0.2706693410873413,-0.18122966587543488,-0.03172290325164795,-0.5326011180877686,-0.3366706669330597,0.1407502144575119,0.6171433925628662,-0.41628050804138184,-0.21755759418010712,0.30654171109199524,-0.11046484112739563,0.8829386830329895,-0.5239784121513367,-0.8299177885055542,0.5038529634475708,0.2733646631240845,-0.15192680060863495,-0.0712079182267189,-0.4272747039794922,0.3561117351055145
symptom::ho,-0.5301330089569092,0.42395633459091187,0.27245864272117615,0.14368870854377747,-0.16278770565986633,-0.5556290149688721,0.019767681136727333,-0.2773158550262451,-0.21983106434345245,0.1880004107952118,1.0833684206008911,-0.12674838304519653,-0.008579769171774387,-0.32832610607147217,0.40398192405700684,0.3461401164531708,-0.3236861526966095,0.10853990912437439,0.32774069905281067,0.1718728393316269,0.4347413182258606,0.5334213972091675,0.3848360478878021,-0.6978219151496887,-0.19780248403549194,-0.1642923206090927,-0.1225130632519722,0.45601096749305725,0.7537860870361328,-0.21226570010185242,-0.3840750455856323,-0.32138243317604065,-0.7031586766242981,-0.6866952776908875,0.15452158451080322,0.4049708843231201,-0.5247954726219177,0.21338482201099396,0.39574602246284485,-0.05131755396723747,0.2136577069759369,0.5985568761825562,-0.12143592536449432,-0.19969654083251953,0.37171122431755066,-0.4558113217353821,0.48870182037353516,-0.2777685523033142,-0.24585668742656708,0.19628995656967163,0.28087887167930603,-0.30964046716690063,-0.5610941648483276,0.38649070262908936,0.4049301743507385,0.6326648592948914,-0.1766626387834549,-0.49061790108680725,0.39964163303375244,0.48675537109375,0.339499294757843,-0.23088134825229645,-0.2362317591905594,0.11669620126485825
symptom::tăng cân,0.7012832760810852,-0.16640950739383698,0.5929601788520813,-0.46987995505332947,0.6951655745506287,-0.15986773371696472,-0.6142259240150452,0.4173300564289093,-0.04501994699239731,0.22274647653102875,0.5666577219963074,-0.43083950877189636,-0.5533226132392883,-0.2836863398551941,0.14291594922542572,-0.26904645562171936,-0.8352760672569275,-0.11262019723653793,-0.10245946049690247,0.2185017168521881,-0.04369562491774559,-0.5520139336585999,-0.21191222965717316,-0.5381539463996887,-0.862208366394043,0.3614523410797119,-0.5202755331993103,-0.10078191757202148,-0.1856999397277832,-0.8593007922172546,-0.18884703516960144,0.18219637870788574,-0.7011107802391052,-0.24762097001075745,0.6809847950935364,0.3041672110557556,-0.4627559781074524,0.5702278017997742,0.2710862159729004,0.1685129702091217,0.2289196401834488,0.665433943271637,-0.40555599331855774,0.09097301959991455,0.36010614037513733,0.3882356584072113,0.05094399303197861,-0.4308334290981293,0.16519279778003693,0.7928431034088135,0.059302814304828644,0.8295923471450806,0.46533310413360596,-0.2159707248210907,0.2975071370601654,0.5524678230285645,0.6505109071731567,-0.727741003036499,0.09754626452922821,0.38486209511756897,-0.35990050435066223,-0.057760585099458694,-0.08633769303560257,0.6524052619934082
symptom::chóng mặt,-0.16759394109249115,-0.28053125739097595,0.34068670868873596,0.17744171619415283,-0.25418803095817566,-0.6237919926643372,0.08017894625663757,0.26139596104621887,-0.09416437149047852,-0.27707287669181824,-0.05394458770751953,0.27799609303474426,-0.23248393833637238,-0.17026984691619873,0.22446782886981964,-0.007371212355792522,-0.3793841600418091,-0.04542290419340134,0.14624202251434326,0.1099366694688797,0.3086949586868286,0.46651744842529297,-1.1135644912719727,-0.38504666090011597,-0.41777393221855164,-0.0028565372340381145,-0.4347812235355377,0.3881216049194336,0.40063098073005676,-0.5315079092979431,-0.20436091721057892,-0.13725586235523224,-0.2091277688741684,-0.689683735370636,-0.30186012387275696,0.04348371922969818,0.3881121575832367,0.09138235449790955,0.21211229264736176,-0.023476868867874146,0.8518987894058228,0.24059367179870605,0.3172451853752136,-0.2575773298740387,0.700056254863739,0.7773416042327881,-0.3181290626525879,-0.44600769877433777,0.4956187605857849,-0.18297946453094482,0.07630850374698639,0.49386006593704224,-0.40750524401664734,-0.2888244688510895,0.5850481390953064,0.5506159663200378,0.5103609561920166,-0.6792986392974854,-0.2161625772714615,0.05978481099009514,0.4001304805278778,-0.06979796290397644,-0.49666425585746765,0.37595200538635254
symptom::hạn chế vận động,-0.320987343788147,-0.3389888405799866,0.32214605808258057,-0.3668675422668457,0.1950293481349945,-0.5572657585144043,0.40677106380462646,-0.06265480816364288,0.2658902704715729,0.530772864818573,0.4774925410747528,-0.33024999499320984,-1.0733133554458618,-0.38469359278678894,0.29569268226623535,-0.10532407462596893,0.10478997975587845,-0.24646560847759247,0.5526131391525269,0.6698967218399048,1.1802747249603271,-0.4834824204444885,-0.48657768964767456,-0.08219289034605026,-0.378755658864975,0.33911794424057007,0.10283766686916351,-0.2878258228302002,-0.2528250813484192,-0.24073995649814606,-0.035508643835783005,0.8194685578346252,-0.48577558994293213,-0.4828430116176605,0.8853095173835754,0.26386144757270813,0.24624893069267273,0.5669352412223816,-0.14316701889038086,-0.2898254096508026,-0.6585435271263123,0.5485821962356567,0.5675355195999146,-0.11309807002544403,0.8560147881507874,0.2523789703845978,0.09005666524171829,-0.2017417848110199,0.4380747377872467,0.1754046231508255,0.30434444546699524,0.38960570096969604,-0.5642076730728149,0.34164029359817505,0.7901313304901123,0.1939953714609146,-0.27767759561538696,-0.18471117317676544,-0.3034123480319977,-0.06975763291120529,-0.10264168679714203,-1.0935958623886108,0.3113664388656616,-0.3854182958602905
symptom::đau lưng,0.43013444542884827,-0.41244202852249146,-0.10602451860904694,0.06764483451843262,-0.4905727505683899,-0.5091117024421692,0.11337510496377945,-0.18932047486305237,0.19934754073619843,0.7483363747596741,0.3460816740989685,0.1864381581544876,-0.2660822868347168,-0.43766945600509644,0.2211509793996811,0.6734578609466553,-0.9281816482543945,-0.5109754800796509,-0.07698525488376617,0.4300989806652069,0.5937942862510681,0.1513272374868393,-0.7316104173660278,-0.41283637285232544,0.6305764317512512,0.6899492740631104,-0.3508281111717224,-0.5769758820533752,-0.4889768958091736,0.2267300933599472,0.3791331648826599,-0.013240853324532509,-0.42081791162490845,-0.8745900988578796,0.47625380754470825,0.35468727350234985,-0.5462436079978943,0.6728252172470093,-0.023792484775185585,0.21750827133655548,0.4406561255455017,1.7311137914657593,-0.3338001072406769,0.5959182381629944,0.12099772691726685,0.01243289839476347,-0.6805841326713562,-0.43022799491882324,0.08492424339056015,-0.36514562368392944,0.5728085041046143,0.668978214263916,0.1196710392832756,0.3775932192802429,0.8332322835922241,0.7077046036720276,0.07982617616653442,-0.3040272295475006,-0.3736444413661957,0.09475822746753693,-0.16041627526283264,-0.19903136789798737,0.7657164931297302,-0.022648034617304802
symptom::khó thở khi vận động,0.7809884548187256,0.2109273076057434,0.5336911678314209,-0.5314853191375732,0.6666961908340454,-0.48452454805374146,-0.793241560459137,0.09784228354692459,0.09339335560798645,0.4366976320743561,0.40038612484931946,-0.35088080167770386,-0.559202253818512,-0.523047685623169,-0.09556036442518234,-0.27731776237487793,-0.8400171399116516,-0.017174672335386276,-0.19452357292175293,0.6212655305862427,0.007648630067706108,-0.887525200843811,-0.11493080854415894,-0.6214804649353027,-0.8665889501571655,0.5774825215339661,-0.7417188286781311,-0.37353140115737915,0.06620568037033081,-0.7233840227127075,-0.2738451063632965,0.1361360102891922,-0.6120243668556213,-0.5084899663925171,0.8056069016456604,0.5071389079093933,-0.40229135751724243,0.32099390029907227,0.20777630805969238,0.26647794246673584,0.19719742238521576,0.6088625192642212,-0.3402964472770691,0.09316796809434891,0.4780334234237671,0.10628502070903778,0.12355668842792511,-0.5142307281494141,0.02824881486594677,0.6984323263168335,-0.015959346666932106,0.849482536315918,0.48636937141418457,-0.0008145556785166264,0.31511566042900085,0.9854371547698975,0.5166855454444885,-0.33132368326187134,-0.19867099821567535,0.3331714868545532,-0.6576491594314575,-0.19428382813930511,-0.17127344012260437,0.537140429019928
symptom::đau bụng,-0.0420793816447258,0.06232236325740814,-0.13324786722660065,-0.02354336902499199,0.31350642442703247,-0.25056466460227966,0.3312474191188812,-0.09798919409513474,-0.5975019931793213,-0.0512394942343235,0.5419341921806335,-0.19457286596298218,-0.4503972828388214,-0.7764217853546143,0.5838716626167297,-0.3170035183429718,-0.118374302983284,-0.5027822256088257,0.27065908908843994,0.26934170722961426,0.783960223197937,-0.18073920905590057,-0.9739887118339539,-0.5777662992477417,-0.5821248888969421,-0.002738336334004998,-0.42344966530799866,0.18676942586898804,0.8064326047897339,-0.0944083109498024,-0.13503551483154297,0.2723255753517151,0.1525239795446396,-0.5170857906341553,-0.016882969066500664,-0.2064325511455536,-0.2000005692243576,0.6343190670013428,0.7670666575431824,-0.06985804438591003,0.7287431955337524,0.19951973855495453,0.3924851715564728,0.28740954399108887,-0.2632733881473541,0.3063947260379791,-0.6290329098701477,-0.17936284840106964,0.0005156885599717498,-0.2887211740016937,0.0729147419333458,0.17895011603832245,0.616413414478302,-0.6164807677268982,0.9319630265235901,0.21123963594436646,0.35242268443107605,-0.9527255892753601,-0.11594925075769424,-0.5203168988227844,0.0956205502152443,0.02126547507941723,0.030297543853521347,-0.08701508492231369
symptom::thừa mỡ,0.7425459027290344,0.19767363369464874,0.5109377503395081,-0.3882439136505127,0.6450449824333191,-0.45133575797080994,-0.8047606348991394,0.15242940187454224,0.1261029690504074,0.4517967402935028,0.5434760451316833,-0.37318047881126404,-0.6519055962562561,-0.5412184596061707,-0.1089978739619255,-0.329939067363739,-0.8750414252281189,0.02261080965399742,-0.29784590005874634,0.5106634497642517,0.017652882263064384,-0.8297454714775085,-0.08704806119203568,-0.5838742852210999,-0.899549663066864,0.5474866628646851,-0.7680065035820007,-0.3982451558113098,0.06095951050519943,-0.7768229246139526,-0.34445902705192566,0.09837676584720612,-0.667781412601471,-0.5191605687141418,0.8514789342880249,0.5027183890342712,-0.47386860847473145,0.4150567352771759,0.18363288044929504,0.3225124478340149,0.2071300745010376,0.6393126845359802,-0.34746435284614563,0.06799771636724472,0.4608767628669739,0.16515415906906128,0.04448149725794792,-0.32060369849205017,0.028712717816233635,0.6504338383674622,-0.06168755143880844,0.8356457352638245,0.3880985379219055,-0.05194222182035446,0.2793966233730316,0.9567165374755859,0.39418619871139526,-0.2453177571296692,-0.12944090366363525,0.3195648491382599,-0.6428850889205933,-0.09559448063373566,-0.14596609771251678,0.6529217958450317
symptom::đau đầu,0.09702042490243912,0.12553630769252777,0.3675673305988312,-0.20464761555194855,-0.12597253918647766,-0.6337080001831055,-0.14740106463432312,0.13166433572769165,-0.07784995436668396,0.06691193580627441,0.7446988224983215,-0.17780748009681702,-0.06662631779909134,-0.038970042020082474,-0.02284080907702446,0.13095246255397797,-0.14942210912704468,0.5855136513710022,0.4084639847278595,-0.5634946227073669,0.5174216032028198,0.728468120098114,-0.6232879161834717,-0.6898956894874573,-0.515066385269165,0.08244355022907257,0.3222537934780121,0.5907320380210876,0.12968453764915466,-0.8455727696418762,0.08135294914245605,-0.6887353658676147,-0.10204397886991501,-1.0808368921279907,-0.08964620530605316,-0.09855499863624573,0.16140969097614288,0.05672052130103111,0.49638688564300537,0.1843184530735016,0.12926740944385529,0.16733026504516602,0.1956462562084198,-0.2608466148376465,0.2120315581560135,0.1440860629081726,-0.0012297232169657946,-0.05408323556184769,0.11568249017000198,0.06483516842126846,-0.005031943321228027,0.13619038462638855,-0.6379086971282959,-0.18329091370105743,0.46777185797691345,0.6062725186347961,-0.12679128348827362,-0.303073525428772,0.2176024168729782,0.38309401273727417,-0.1881503462791443,0.09525908529758453,-0.31854215264320374,-0.04134116321802139
symptom::chảy máu lợi,0.03332133591175079,0.12305017560720444,-0.14597274363040924,-0.662955641746521,0.38684356212615967,-0.2731437385082245,-0.3596786558628082,-0.06287295371294022,0.5024176239967346,0.5691336393356323,0.4490242302417755,-0.2659030854701996,-0.29549387097358704,-0.12845897674560547,1.0690189599990845,0.19437116384506226,-0.8368080258369446,-0.20130400359630585,-0.11413393169641495,0.28347909450531006,0.9961681962013245,0.6286956071853638,-0.11439347267150879,0.40035828948020935,-0.9837385416030884,0.9939138293266296,-0.39227205514907837,0.026041632518172264,0.09386668354272842,0.40856313705444336,-1.078932523727417,-0.6127986311912537,-0.40009963512420654,-0.8456345796585083,-0.08006040751934052,0.4618341624736786,-0.03948602452874184,0.7520320415496826,0.4316166043281555,-0.6636741161346436,-0.6712554693222046,0.47639963030815125,-0.06756675988435745,-0.03609875589609146,0.10187491029500961,0.6293079257011414,-0.28064560890197754,-1.1056450605392456,-0.2532447874546051,-0.01468134205788374,0.3787197172641754,0.15077567100524902,0.7508655190467834,0.18966332077980042,0.5892087817192078,0.877711296081543,-0.18786151707172394,-0.2535392642021179,-0.6606317162513733,-0.03406956419348717,-0.5058598518371582,-0.3430013656616211,0.009774602018296719,-0.046886540949344635
symptom::cứng khớp,-0.14090391993522644,-0.10739622265100479,0.7094827890396118,-0.5524927377700806,0.32513657212257385,-0.4421730637550354,0.28601977229118347,0.24716392159461975,0.20448316633701324,0.967656135559082,0.2034100443124771,-0.09586724638938904,-1.1879593133926392,-0.5055886507034302,0.42959287762641907,0.29554903507232666,0.14849773049354553,-0.0737125426530838,0.42142340540885925,0.10552516579627991,0.7324175238609314,-0.5255486369132996,-0.5328128933906555,0.18814021348953247,-0.2520238161087036,0.6156781315803528,-0.11564063280820847,0.1136264055967331,-0.1759297400712967,-0.691672146320343,0.3824489116668701,0.6409153342247009,0.06680057942867279,-0.24299299716949463,0.6385806202888489,-0.20701035857200623,0.029391031712293625,0.2939016819000244,-0.22432054579257965,-0.3338797092437744,-0.6821615099906921,0.34480640292167664,0.3640117347240448,0.7349746227264404,0.523455023765564,-0.26871395111083984,0.33434903621673584,-0.3195142149925232,-0.20337164402008057,-0.29666242003440857,0.5005471706390381,0.41771960258483887,-0.6484140753746033,0.30271342396736145,0.9345241189002991,1.00446617603302,-0.06639688462018967,-0.3080766797065735,-0.6218738555908203,0.019770214334130287,-0.1802137941122055,-1.147800087928772,-0.20722299814224243,0.03042653389275074
symptom::đau khớp,-0.1544107347726822,0.009359932504594326,0.4001392424106598,-0.20914092659950256,0.3788317143917084,-0.5091816186904907,0.5742250084877014,0.08743742108345032,0.10078313201665878,0.634942352771759,0.37822481989860535,-0.3831672668457031,-0.8487579822540283,-0.1993536651134491,0.43340903520584106,-0.015361788682639599,0.12531380355358124,0.03584910184144974,0.5990486741065979,0.33157435059547424,0.8013350963592529,-0.14338210225105286,-0.5587289929389954,-0.10119065642356873,-0.5897279381752014,0.11842366307973862,-0.17355264723300934,0.14761953055858612,-0.2795146703720093,-0.6204052567481995,0.09888682514429092,0.4427538216114044,0.02546396106481552,-0.5131215453147888,0.8197768330574036,-0.09207727760076523,0.4076828062534332,0.5417978167533875,-0.33376482129096985,-0.47877565026283264,-0.46791738271713257,0.1185763031244278,0.2677958607673645,0.5035403966903687,0.5897917151451111,0.44918128848075867,0.24362705647945404,-0.28992119431495667,0.37545570731163025,0.40801748633384705,0.0665496364235878,0.43973061442375183,-0.5532330870628357,0.13454844057559967,1.0294861793518066,0.1561785191297531,-0.1539372205734253,-0.051990870386362076,-0.6270348429679871,0.009283479303121567,0.11178895086050034,-1.3167957067489624,-0.0029991455376148224,0.049743928015232086
symptom::dễ gãy xương,0.41459348797798157,-0.6982917785644531,-0.09663189947605133,0.2498081773519516,-0.5048452615737915,-0.9224100708961487,-0.020183898508548737,-0.25111666321754456,0.057939719408750534,0.922341525554657,0.4614824950695038,0.0568837970495224,-0.0713823214173317,-0.5129876136779785,0.13089290261268616,0.49267905950546265,-0.8847063779830933,-0.20459313690662384,-0.15177832543849945,0.3350455164909363,0.6437696218490601,0.03703228384256363,-0.7190601229667664,-0.3797968029975891,0.7820524573326111,0.6016952395439148,-0.4577696919441223,-0.5767871141433716,-0.4123973846435547,0.13812550902366638,0.22474461793899536,0.1829470694065094,-0.24812249839305878,-0.8549050092697144,0.5464072823524475,0.5961177945137024,-0.579637348651886,0.684911847114563,0.18269790709018707,0.27460047602653503,0.33674684166908264,1.8803571462631226,-0.004104576539248228,0.7354856133460999,0.056906577199697495,-0.17597109079360962,-0.5535090565681458,-0.42266538739204407,0.12088140845298767,-0.08673574775457382,0.43890848755836487,0.7580329775810242,-0.010099112056195736,0.23681983351707458,0.7707129120826721,0.787940502166748,0.25832244753837585,-0.21769756078720093,-0.09351549297571182,-0.08375861495733261,0.005035329610109329,-0.2616065442562103,0.619238018989563,0.07014298439025879
symptom::giảm chiều cao,0.4642222821712494,-0.729171633720398,-0.08793307840824127,0.16832658648490906,-0.515206515789032,-0.9393683671951294,-0.05312401428818703,-0.2189221829175949,0.032299406826496124,0.8640119433403015,0.4718020260334015,0.009858465753495693,0.004554122220724821,-0.48501938581466675,0.12694622576236725,0.49751365184783936,-0.9144443869590759,-0.2619600296020508,-0.19858774542808533,0.3863085210323334,0.6536811590194702,0.05411453917622566,-0.686954915523529,-0.38612282276153564,0.8005061149597168,0.663243293762207,-0.46510010957717896,-0.5925143957138062,-0.44153428077697754,0.13326622545719147,0.20778219401836395,0.19182389974594116,-0.2912009656429291,-0.8804638981819153,0.4418983459472656,0.5777743458747864,-0.5509925484657288,0.7371774315834045,0.11639762669801712,0.2681548595428467,0.3541070818901062,1.8642354011535645,-0.0035674008540809155,0.714308500289917,0.04633283615112305,-0.1261870265007019,-0.5898348689079285,-0.48435860872268677,0.1682928502559662,-0.09409677237272263,0.49512627720832825,0.7432231903076172,0.005783667787909508,0.174768328666687,0.700211763381958,0.7826204299926758,0.24619022011756897,-0.2324412614107132,-0.09146874397993088,-0.11023969203233719,0.07779159396886826,-0.26964664459228516,0.5590993762016296,-0.02757631242275238
symptom::nặng tức hạ sườn phải,0.448322594165802,0.13990528881549835,0.07181964069604874,-0.251656174659729,0.3611620366573334,-0.47410720586776733,0.14056310057640076,0.26088452339172363,-0.17731298506259918,0.4050947427749634,0.47185343503952026,-0.25756266713142395,-0.46554476022720337,0.14866381883621216,0.5156193971633911,0.31473952531814575,-0.020352140069007874,-0.19742220640182495,-0.09164944291114807,0.02919691428542137,0.7045500874519348,0.3504981994628906,-0.8917559385299683,-0.5257413387298584,-0.24523548781871796,0.19831609725952148,-0.4841848611831665,0.9280644655227661,-0.39411208033561707,-0.18290719389915466,0.3177761733531952,0.26003965735435486,-0.15162886679172516,-0.8956795334815979,-0.17039240896701813,-0.0516979843378067,-0.05175120010972023,0.6428279876708984,-0.35501453280448914,-0.47452348470687866,0.05514204874634743,0.4430823028087616,0.16616728901863098,-0.41259709000587463,-0.023214124143123627,0.6667563319206238,-0.0703541487455368,0.12720714509487152,0.34412240982055664,0.9144649505615234,-0.37389615178108215,0.3611258566379547,-0.44622549414634705,-0.6467841267585754,0.664872944355011,0.825150191783905,0.5100247263908386,-0.7382335662841797,-0.4182552695274353,-0.28762194514274597,0.2710317373275757,0.13101106882095337,-0.32623428106307983,0.5699309706687927
symptom::hăm kẽ,-0.06288272887468338,-0.769453763961792,-0.26806631684303284,0.6671416163444519,0.8989238142967224,-0.7837446928024292,-0.3086128234863281,-0.027647003531455994,-0.05225936695933342,0.9991164207458496,-0.20249304175376892,-0.6683336496353149,-0.502331554889679,-0.5804080963134766,-0.06488222628831863,-0.3825157582759857,-0.6493850350379944,0.13058921694755554,0.30890557169914246,0.7941878437995911,0.558262288570404,-0.1059432104229927,0.16073955595493317,-0.45700186491012573,0.062111109495162964,0.21128186583518982,-0.48177891969680786,0.07800726592540741,0.3471367359161377,-0.2211277037858963,0.16758829355239868,-0.13937047123908997,-0.09434299916028976,-0.7237228155136108,-0.2254176139831543,0.5268039703369141,-0.17230093479156494,-0.4662242829799652,0.8779991269111633,0.11803258210420609,-0.4772680401802063,0.28551048040390015,-0.1968141496181488,-0.27653613686561584,-0.1732349544763565,0.4709634482860565,-0.10945095866918564,-0.05537526682019234,-0.8257855176925659,0.37713101506233215,-0.02416529692709446,0.17873291671276093,0.027243413031101227,0.5862716436386108,0.589780330657959,0.5311248302459717,-0.5657770037651062,-1.2817797660827637,-0.3488214313983917,0.3556526005268097,0.04725242778658867,-0.38892310857772827,0.12247923761606216,-0.13384151458740234
symptom::run tay,-0.012880617752671242,-0.13408878445625305,0.03104822151362896,0.08314671367406845,0.02487168274819851,-0.33791840076446533,0.36911070346832275,0.01636616326868534,-0.15747112035751343,0.6334065198898315,0.36468470096588135,-0.7042742371559143,-0.38869479298591614,0.12156672030687332,0.1312195509672165,0.4913216233253479,-0.253332257270813,-0.062453534454107285,0.49049097299575806,0.1450793594121933,0.5765822529792786,0.2876863479614258,-0.5336126089096069,-0.4230741858482361,-0.21161948144435883,0.1914515495300293,0.01701645739376545,0.3920149803161621,0.12460273504257202,-0.7599583268165588,0.1610369086265564,-0.01595686562359333,-0.254080206155777,-0.5771437883377075,-0.06048634648323059,-0.26281341910362244,-0.04428713023662567,-0.23012775182724,-0.07090558856725693,0.23446588218212128,-0.18563568592071533,0.5929258465766907,0.22587676346302032,0.41279613971710205,0.42214515805244446,0.5388216972351074,-0.8178012371063232,0.08114053308963776,0.9644792079925537,0.781112551689148,0.4723244905471802,0.3030959665775299,0.32124319672584534,-0.9470572471618652,0.4996946156024933,0.26517096161842346,0.25980639457702637,-1.0277329683303833,-0.3231794238090515,0.4669167101383209,-0.17378534376621246,0.0844646692276001,-0.4836564064025879,0.7069422602653503
symptom::tiêu chảy,0.18519185483455658,-0.05452036112546921,-0.1332172155380249,-0.038397930562496185,0.5548146963119507,-0.4539478123188019,0.3518385589122772,0.09981809556484222,-0.5400943160057068,-0.03519679605960846,0.4364410638809204,-0.34734728932380676,-0.29713284969329834,-0.9790212512016296,0.14096702635288239,-0.07966094464063644,-0.5305379629135132,-0.318839430809021,-0.00828210823237896,0.04788830503821373,0.4281209409236908,-0.47838735580444336,-1.0031894445419312,-0.8564909100532532,-0.7531518936157227,0.1378200799226761,-0.34905341267585754,0.32817697525024414,0.8109732866287231,-0.041834618896245956,0.03963381052017212,-0.06572584062814713,-0.11368970572948456,-0.6331504583358765,-0.13215568661689758,-0.17130477726459503,0.14597631990909576,0.8284610509872437,0.49382948875427246,-0.5950554609298706,0.7643546462059021,-0.13461744785308838,0.35830530524253845,0.46746039390563965,-0.3053235411643982,0.23417465388774872,-0.5594727993011475,-0.4339418411254883,0.36632317304611206,0.03651880845427513,0.18262796103954315,0.04944992810487747,0.2343595176935196,-0.36350739002227783,1.3013917207717896,0.2690715193748474,0.2123970240354538,-0.6440013647079468,-0.4524250328540802,-0.3988663852214813,-0.024445967748761177,-0.1659207046031952,-0.2815552353858948,0.2762135863304138
symptom::khó thở,-0.3900902569293976,0.009267720393836498,0.6861775517463684,0.40317875146865845,-0.11880123615264893,-0.3571529686450958,0.33742645382881165,-0.3116290271282196,-0.4370259642601013,0.34863588213920593,0.8766428828239441,-0.09199076145887375,0.20831823348999023,-0.9944517016410828,0.4446452856063843,0.6789524555206299,-0.05274684727191925,0.1686459332704544,0.1742965131998062,0.12764810025691986,0.8026762008666992,0.979464054107666,0.2869676947593689,-0.2842280864715576,-0.2384267896413803,0.06451178342103958,-0.03961917757987976,0.271212637424469,0.43554913997650146,0.18773163855075836,-0.2772960066795349,-0.468410849571228,-0.8103976249694824,-0.9247705340385437,0.3000556230545044,0.36063089966773987,-0.7015910744667053,0.18857932090759277,0.3256569504737854,0.18639683723449707,0.2922276258468628,0.31134963035583496,-0.35279467701911926,-0.19072496891021729,0.2933077812194824,0.09691409766674042,0.22215023636817932,0.15143872797489166,-0.28575533628463745,0.2017696499824524,0.7737224102020264,0.3319692015647888,-0.6738903522491455,0.49773460626602173,0.14631521701812744,0.5265930891036987,0.15857194364070892,-0.1286495178937912,0.30338579416275024,0.2076215147972107,0.4316844642162323,-0.6554438471794128,-0.14179250597953796,0.5004979968070984
symptom::nôn,-0.09039046615362167,-0.17016848921775818,0.3031401038169861,0.06118058040738106,0.12352566421031952,-0.6473667025566101,0.22106251120567322,0.15699219703674316,0.004579406697303057,0.18925200402736664,0.2734512686729431,0.0264772679656744,-0.20473968982696533,-0.12095587700605392,0.5077049732208252,0.042620714753866196,-0.21973009407520294,-0.2017490714788437,0.18269747495651245,-0.35070472955703735,0.5214812159538269,0.43599066138267517,-1.0488985776901245,-0.24883143603801727,-0.5687384009361267,0.030180316418409348,-0.22746379673480988,0.27243512868881226,0.7091299295425415,-1.034712314605713,0.0747549831867218,0.12815333902835846,0.07459837198257446,-0.5951434373855591,-0.0727030485868454,0.22508962452411652,0.44890376925468445,0.24778394401073456,0.31948530673980713,0.22074349224567413,0.6287466287612915,0.20048023760318756,0.1579826921224594,-0.026855777949094772,-0.08249013870954514,1.0314249992370605,-0.14998804032802582,-0.7073658108711243,0.5247094035148621,-0.2076001912355423,-0.19525498151779175,0.31950297951698303,-0.2058868110179901,-0.4166267216205597,0.5467488169670105,0.4895024001598358,0.5371351838111877,-0.9602064490318298,-0.25636011362075806,-0.1431618630886078,0.2706795632839203,-0.17108382284641266,-0.1831090897321701,0.9531412720680237
symptom::mất ngủ,0.13465936481952667,0.07392556220293045,-0.2194206714630127,-0.2318013459444046,0.13132810592651367,-0.2676770091056824,0.6105028390884399,-0.048780012875795364,-0.3801543116569519,0.798767626285553,0.568838894367218,-0.11958815902471542,-0.9114940762519836,0.019479235634207726,0.14408746361732483,-0.3083305060863495,0.014134697616100311,0.2633470892906189,0.6776438355445862,-0.170725479722023,0.12218201905488968,0.07243101298809052,-0.6523070335388184,-1.056685209274292,-0.6682589054107666,0.6399124264717102,0.24430830776691437,0.22191528975963593,0.30139029026031494,-0.19084268808364868,0.15383321046829224,-0.42994847893714905,0.01584143191576004,-0.6806245446205139,-0.21031145751476288,-0.1415846049785614,0.20742663741111755,0.4246422350406647,-0.42178982496261597,0.22153565287590027,0.06969397515058517,-0.09573467075824738,0.29251477122306824,-0.000508531869854778,0.3103640377521515,0.8687654137611389,-0.09926686435937881,-0.5532222390174866,0.28486549854278564,0.6052759289741516,0.13545280694961548,0.5346349477767944,0.021561017259955406,-0.26743778586387634,0.19315305352210999,0.660775363445282,0.2923870086669922,-0.9430033564567566,0.070028156042099,0.7458140850067139,0.6860713362693787,0.09548907727003098,0.10144034773111343,0.286529004573822
symptom::đỏ lợi,-0.02112714573740959,0.2427297830581665,-0.07198798656463623,-0.46661654114723206,0.33470383286476135,-0.07038956135511398,-0.3505755066871643,-0.19202490150928497,0.43889641761779785,0.8283359408378601,0.2303164005279541,-0.4726952612400055,-0.5398455858230591,-0.30359989404678345,1.1167762279510498,0.10817695409059525,-1.2330762147903442,-0.034252289682626724,0.18656057119369507,0.1382351666688919,1.1437331438064575,0.48421144485473633,-0.1099560558795929,0.3579740822315216,-0.8930002450942993,0.9013957977294922,-0.1836918145418167,-0.09434332698583603,0.1725374162197113,0.3473457992076874,-0.9834460020065308,-0.5590351223945618,-0.624108076095581,-0.738940417766571,-0.09195324033498764,0.6331437826156616,0.028024613857269287,0.7444802522659302,0.6671527028083801,-0.4450458288192749,-0.6902459859848022,0.4082264006137848,-0.21099770069122314,0.3061966300010681,0.017356473952531815,0.8893985748291016,-0.34431079030036926,-0.8327972292900085,-0.10895753651857376,-0.07438107579946518,0.054009441286325455,0.22377975285053253,0.7908175587654114,0.19501128792762756,0.5578402280807495,0.9297950267791748,0.02636777050793171,-0.12312731146812439,-0.8064850568771362,-0.25193551182746887,-0.5022639036178589,-0.28619611263275146,0.10745367407798767,0.1434931755065918
symptom::khó chịu,0.680964469909668,-0.3464089632034302,0.6850260496139526,0.021700706332921982,0.33351337909698486,-0.732333779335022,0.3334464728832245,-0.1919969916343689,-0.740058183670044,0.32183384895324707,0.42340031266212463,-0.624456524848938,-0.6328922510147095,-0.15270204842090607,0.8314425945281982,0.773986279964447,-0.12547026574611664,-0.32827726006507874,0.017870765179395676,0.9569445848464966,0.9817192554473877,0.756962776184082,-0.8493841290473938,-0.6417734622955322,-0.31830424070358276,0.3596702516078949,0.21409828960895538,0.3594766855239868,0.8919755816459656,0.23836077749729156,-0.13481274247169495,-0.2709352374076843,-0.08407846093177795,-0.27805981040000916,-0.4014621675014496,-0.04181087762117386,-0.6184914112091064,0.3823498785495758,0.3356185853481293,0.7241370677947998,0.12759217619895935,0.029130732640624046,-0.2174142599105835,0.7741075754165649,0.18715530633926392,-0.6873413324356079,0.028781577944755554,-0.3558744788169861,-0.03692790865898132,0.026114847511053085,-0.276455819606781,0.2551121413707733,0.4251299798488617,0.40256133675575256,0.39566659927368164,0.09068898856639862,0.3857484459877014,-0.7799688577651978,-0.13738155364990234,-0.5404266119003296,0.3154485821723938,-0.6507611274719238,-0.4670289158821106,-0.2708500921726227
symptom::sưng lợi,-0.025151386857032776,0.24416150152683258,-0.05160069465637207,-0.4329026937484741,0.3431682884693146,-0.030946262180805206,-0.3969128727912903,-0.2086302787065506,0.4216448664665222,0.7878533005714417,0.2232830673456192,-0.5148588418960571,-0.5320606231689453,-0.2217152714729309,1.1590627431869507,0.09526976197957993,-1.2696818113327026,-0.04504522308707237,0.22633619606494904,0.06092801317572594,1.128048300743103,0.513279139995575,-0.15942740440368652,0.3026534914970398,-0.9270529747009277,0.8820759654045105,-0.2461300790309906,-0.08242545276880264,0.1730348914861679,0.38158905506134033,-1.0022120475769043,-0.48039674758911133,-0.6689285039901733,-0.6946297287940979,-0.1266263723373413,0.6147217154502869,-0.03763739764690399,0.7315587997436523,0.6923860311508179,-0.456876277923584,-0.5987767577171326,0.5126771926879883,-0.24127347767353058,0.33059263229370117,0.03691139444708824,0.9198330044746399,-0.29324871301651,-0.816318154335022,-0.16366088390350342,-0.08922179788351059,0.013218111358582973,0.21539737284183502,0.7842920422554016,0.22596344351768494,0.6023839712142944,0.9248523712158203,0.04517875984311104,-0.05127689987421036,-0.7664017081260681,-0.25114259123802185,-0.44679635763168335,-0.2362949699163437,0.09070619195699692,0.13495102524757385
symptom::chảy mũi,-0.1812492161989212,-0.1554572582244873,0.18352293968200684,-0.00026184538728557527,-0.012367568910121918,-0.7090237140655518,-0.23900975286960602,0.3739631772041321,-0.46017202734947205,-0.05587138235569,0.34391775727272034,-0.3589901030063629,-0.2610462009906769,-0.057882532477378845,0.15002305805683136,0.3280092477798462,-0.2268654853105545,0.46312791109085083,0.3588533401489258,-0.448690265417099,0.2960112690925598,0.6513145565986633,-0.478502482175827,-0.918217122554779,-0.16957029700279236,0.21381664276123047,-0.003527349093928933,0.32872605323791504,0.10419914871454239,-0.42106106877326965,0.1640937328338623,-0.48620837926864624,-0.2928425371646881,-0.9873843193054199,-0.14306733012199402,0.332709938287735,0.2231575846672058,0.16617780923843384,0.8235540986061096,0.15017259120941162,0.046149928122758865,0.1188618391752243,-0.17143411934375763,-0.5238612294197083,-0.010773594491183758,0.1602822244167328,-0.38588711619377136,-0.22946272790431976,-0.15573062002658844,0.3661167323589325,0.5599749684333801,1.1458534002304077,-0.6491485834121704,0.33180275559425354,0.3963482081890106,0.9868974685668945,-0.4775359332561493,0.04664918780326843,0.4192490875720978,0.3662373423576355,-0.0968644767999649,0.04197690635919571,-0.20875774323940277,-0.5321282148361206
symptom::khát nước,0.4300467073917389,0.08496313542127609,0.5382712483406067,0.6513158679008484,-0.01950831152498722,-0.6349011063575745,-0.15767690539360046,0.013402596116065979,-0.29942288994789124,0.4279640316963196,0.37103503942489624,0.2819986641407013,-0.9640352725982666,-0.050069041550159454,0.7079224586486816,-0.11440039426088333,-0.6280279755592346,-0.12084227055311203,-0.09464608877897263,-0.4498295783996582,0.3247424066066742,0.13412702083587646,-0.8378511071205139,-0.4539194703102112,-0.13341179490089417,0.1708119809627533,-0.06488625705242157,0.6983329653739929,-0.048875000327825546,-0.4644917845726013,-0.5018872618675232,-0.419101744890213,-0.07103966921567917,-0.5212035179138184,-0.03807232901453972,-0.399033784866333,0.34534952044487,0.35805121064186096,-0.009998675435781479,0.3721143305301666,0.3930569589138031,0.13859595358371735,0.6154595017433167,-0.09535356611013412,0.5477854013442993,0.5314164161682129,-0.4595625400543213,-0.013977421447634697,0.27146753668785095,0.6128175854682922,-0.22684335708618164,0.5604114532470703,0.33600473403930664,-0.55189448595047,0.8136783242225647,0.676798403263092,0.033641163259744644,-0.35159212350845337,-0.18027818202972412,0.32073676586151123,0.284074604511261,-0.44719114899635315,-0.044790707528591156,0.9652169942855835
symptom::bầm tím,-0.13616888225078583,0.015885094180703163,0.17457303404808044,-0.44026583433151245,0.5262229442596436,-1.322087287902832,0.30522990226745605,0.16791895031929016,-0.0979733094573021,0.34747186303138733,0.7189794182777405,-0.5784361958503723,-0.7485516667366028,-0.610434353351593,0.4718673825263977,0.2053360790014267,-0.033552709966897964,-0.643006443977356,0.6724427342414856,0.5791175365447998,0.5490707159042358,-0.6881777048110962,0.05921614170074463,0.05822058767080307,-0.008002624846994877,0.5962629318237305,0.07700556516647339,-0.22296932339668274,-0.01446137297898531,-0.025707993656396866,-0.3132588267326355,0.5039985179901123,-0.31419551372528076,-0.8633216023445129,0.34262815117836,0.20587007701396942,-0.36756259202957153,0.37272244691848755,0.06949161738157272,-0.0955769419670105,-0.60844486951828,0.6318215131759644,0.6799415349960327,-0.11624117940664291,0.7651316523551941,0.520370364189148,0.09025654196739197,-0.3045295476913452,0.9489864706993103,0.1075289398431778,0.2686416208744049,0.6608371138572693,-0.42902323603630066,0.5187437534332275,0.632016122341156,0.3901095688343048,-0.1536707580089569,-0.1319786012172699,-0.5484570264816284,0.11317400634288788,-0.22879859805107117,-1.3724957704544067,0.30536913871765137,-0.6215404868125916
symptom::nghẹt mũi,-0.1938243806362152,-0.24427616596221924,0.268187016248703,0.21997566521167755,0.03592247888445854,-0.8073476552963257,-0.18992315232753754,0.23487664759159088,-0.33196428418159485,0.07759088277816772,0.3802901804447174,-0.35721564292907715,-0.3875824511051178,-0.025304382666945457,0.1978387087583542,0.44152548909187317,-0.27163031697273254,0.5923156142234802,0.5261183977127075,-0.4179859757423401,0.34953251481056213,0.763400137424469,-0.5008181929588318,-0.7199733257293701,-0.11518128961324692,0.05460206791758537,-0.04340697452425957,0.2741212844848633,-0.05463672801852226,-0.4787517488002777,0.10465855896472931,-0.42044731974601746,-0.22405453026294708,-0.904271125793457,-0.16392286121845245,0.42883774638175964,0.12455394864082336,0.359589546918869,0.6832492351531982,0.1500796228647232,-0.004487636033445597,0.0761219710111618,-0.16662518680095673,-0.6210603713989258,0.05619833618402481,0.0577889047563076,-0.2084110528230667,-0.23880839347839355,-0.2836623787879944,0.20633617043495178,0.600581169128418,1.1377187967300415,-0.8073428869247437,0.1357928216457367,0.4361075758934021,0.9886440634727478,-0.47791463136672974,-0.0674545094370842,0.572928786277771,0.26959460973739624,-0.08882973343133926,0.10703038424253464,-0.15649424493312836,-0.4758072793483734
symptom::khàn tiếng,-0.3393981158733368,0.5966910123825073,0.37366533279418945,-0.3352798819541931,-0.4909477233886719,-0.7174562215805054,0.3083718419075012,-0.46548905968666077,-0.06515190005302429,0.19523760676383972,0.9722847938537598,-0.062067341059446335,-0.26879963278770447,-0.7359491586685181,0.4169265925884247,-0.06744445860385895,-0.11703497171401978,-0.03822427615523338,-0.16149649024009705,-0.04033627361059189,0.6228209733963013,0.32548195123672485,0.31119340658187866,-0.5806812047958374,-0.47518303990364075,-0.14208422601222992,-0.007015747018158436,0.4804452061653137,0.7908138036727905,0.3261062204837799,-0.20803382992744446,-0.5957744121551514,-0.6030330657958984,-0.8607774972915649,0.7629042863845825,0.4047034680843353,-1.1482725143432617,-0.07591147720813751,0.6147231459617615,-0.05138247087597847,0.0783136785030365,0.6716252565383911,-0.39856210350990295,0.2511145770549774,0.427581787109375,-0.23626548051834106,0.12373854964971542,0.047610942274332047,-0.3682937026023865,0.21048776805400848,0.23700988292694092,-0.10261300206184387,-0.5483682155609131,0.5400896668434143,0.3418635129928589,1.116010069847107,-0.47547540068626404,-0.26890966296195984,0.325538694858551,0.1948043406009674,0.03874695673584938,-0.5481858849525452,-0.29397040605545044,0.5165829062461853
symptom::sưng đau,-0.14298315346240997,-0.04612789303064346,0.15993288159370422,-0.4176299571990967,0.5716878175735474,-1.284153699874878,0.41377201676368713,0.1408914178609848,-0.12472660094499588,0.37702953815460205,0.7326393127441406,-0.6217957139015198,-0.7260110974311829,-0.6752216815948486,0.40509989857673645,0.2660718560218811,-0.007949893362820148,-0.5697287321090698,0.6369771361351013,0.6813034415245056,0.6068302392959595,-0.6951857805252075,0.10797466337680817,0.1129254475235939,0.003483966924250126,0.7129965424537659,0.02921386994421482,-0.20295444130897522,-0.06984268128871918,-0.004703112877905369,-0.3137231469154358,0.6090692281723022,-0.2814757823944092,-0.8638710379600525,0.4031006395816803,0.2515582740306854,-0.4270378053188324,0.3809596300125122,0.0603279285132885,-0.0835072249174118,-0.5884057879447937,0.7205899357795715,0.5928524136543274,-0.15638773143291473,0.7130635976791382,0.49804896116256714,0.13566865026950836,-0.2841165065765381,0.9185289144515991,0.19702503085136414,0.2856813371181488,0.6665927171707153,-0.4826175272464752,0.5651692748069763,0.611288845539093,0.39566850662231445,-0.13182838261127472,-0.13148066401481628,-0.5945320725440979,0.06523362547159195,-0.12420953810214996,-1.4254101514816284,0.27684900164604187,-0.5993815660476685
symptom::đau ngực,-0.039818987250328064,0.07513051480054855,1.0050554275512695,-0.05440576374530792,0.1616876870393753,-0.4209313690662384,0.05214348062872887,-0.216433584690094,-0.752065122127533,0.32084596157073975,0.6711018681526184,-0.2821820378303528,0.06886139512062073,-0.6049939393997192,0.27409854531288147,0.8369662165641785,0.016464903950691223,0.3037191331386566,-0.013172716833651066,0.30815988779067993,0.7727611064910889,1.1984333992004395,-0.10118657350540161,-0.544253945350647,-0.0991983562707901,-0.06180059164762497,-0.02930731512606144,0.6137329339981079,0.7150386571884155,0.34510016441345215,0.04316258803009987,-0.5263863205909729,-0.6483378410339355,-0.4636952877044678,-0.12119089812040329,0.005640219897031784,-0.6714536547660828,0.21642860770225525,0.17517174780368805,0.3303343653678894,0.16377119719982147,-0.23300746083259583,-0.08675815165042877,-0.18008841574192047,0.44694945216178894,-0.016702814027667046,0.17638292908668518,-0.15018990635871887,-0.39450228214263916,0.13702896237373352,0.4206702411174774,-0.06676389276981354,-0.10030820965766907,0.029796067625284195,0.220664381980896,0.2880212366580963,-0.27390849590301514,-0.8679194450378418,-0.028184061869978905,0.12783972918987274,0.23655541241168976,-0.4129202663898468,-0.48306262493133545,0.3463444113731384
symptom::chán ăn,0.6971913576126099,-0.3483028709888458,0.6085234880447388,-0.006939944811165333,0.7165273427963257,-0.29998287558555603,0.2895202934741974,-0.4413548707962036,-0.20941263437271118,-0.06980767101049423,0.4776438772678375,-0.31240737438201904,-0.7382938265800476,0.10606715828180313,0.611127495765686,0.23953422904014587,-0.47333773970603943,0.1166292279958725,0.2551662027835846,0.25591957569122314,1.0802083015441895,0.2869618833065033,-0.9299643039703369,-0.6435384154319763,-0.05152083933353424,0.15725038945674896,0.0171570535749197,0.565420389175415,0.7439828515052795,-0.21829810738563538,0.14989101886749268,0.09158990532159805,0.5404850244522095,-0.33697959780693054,-0.3704874515533447,-0.36357927322387695,-0.3954869210720062,0.5996171236038208,0.4801780581474304,0.452859103679657,-0.07574498653411865,0.4118345081806183,0.0795685276389122,0.3993169069290161,0.2960280776023865,-0.053250569850206375,0.11917479336261749,-0.36227238178253174,0.17376025021076202,0.32343417406082153,-0.3160492479801178,0.5182182192802429,0.4664585590362549,-0.13323253393173218,0.26843056082725525,0.1836438775062561,1.1244210004806519,-1.0300259590148926,0.05190086364746094,-0.27478569746017456,0.2088974565267563,-0.34288161993026733,-0.3312729299068451,-0.38369467854499817
symptom::rát,-0.38123634457588196,-0.9416894912719727,-0.0564277321100235,0.8908147811889648,0.1868821382522583,-0.42924773693084717,-0.035234879702329636,0.07366631925106049,-0.4670735001564026,0.764090359210968,-0.0783618837594986,-0.22306442260742188,-0.5178972482681274,-0.5579138398170471,-0.05081992596387863,-0.2173551619052887,-0.9141227602958679,-0.6392455697059631,0.4402845799922943,0.7666891813278198,0.517022430896759,-0.13275779783725739,-0.17541547119617462,-0.7582207918167114,-0.05981692299246788,0.656775951385498,-0.34905529022216797,0.28860875964164734,0.08906657248735428,0.17184846103191376,-0.10026032477617264,-0.3601796329021454,-0.2552291750907898,-0.4319177567958832,-0.006869512610137463,-0.1125921756029129,-0.14787448942661285,-0.7010531425476074,0.5708256959915161,-0.49713459610939026,-0.5655071139335632,0.43993479013442993,-0.25845253467559814,-0.21951547265052795,0.13651461899280548,0.5827993154525757,-0.1250968873500824,-0.17664065957069397,-0.6407573223114014,-0.04664669930934906,-0.08163286000490189,0.4489234983921051,-0.1660107523202896,0.4410313665866852,0.5681847929954529,0.6688129901885986,-0.7446249723434448,-0.6967647671699524,-0.07302882522344589,0.4987771809101105,-0.7200050354003906,-0.7845293283462524,-0.01054849848151207,-0.02748400717973709
symptom::nước tiểu đỏ,-0.03726036474108696,0.14307305216789246,0.8527764081954956,-0.27933913469314575,0.17127598822116852,-1.0151556730270386,-0.5377464294433594,-0.4993453621864319,-0.09276933968067169,0.5168657302856445,0.9514928460121155,-0.2324257493019104,0.5442535877227783,-0.20010481774806976,0.10855346918106079,0.8245502710342407,-0.29530879855155945,0.3090825378894806,0.41133397817611694,-0.22007593512535095,0.7939373850822449,0.33678585290908813,0.21625036001205444,-1.135990858078003,-0.6646624207496643,1.0895092487335205,-0.6650098562240601,0.06640694290399551,0.06623220443725586,-0.23190055787563324,-0.39734596014022827,0.5129472613334656,-0.3945111036300659,-0.03506264463067055,0.3208979666233063,0.11509881913661957,-0.29120123386383057,-0.3307720720767975,0.0755835771560669,0.42751792073249817,-0.02362138219177723,0.41680166125297546,0.4018211364746094,-0.0704304426908493,-0.06472554057836533,-0.1956098973751068,-0.3201911151409149,-0.6539685130119324,-0.48826685547828674,-0.05354611203074455,0.7693594098091125,0.49633094668388367,-0.5438374876976013,0.4204474687576294,0.0026806737296283245,0.34498491883277893,-0.4290810525417328,-0.044035494327545166,-0.6354055404663086,-0.13277070224285126,0.060773711651563644,-0.07478506118059158,0.13118749856948853,-0.04155170917510986
symptom::đầy hơi,0.16723792254924774,0.03984629362821579,-0.14447860419750214,0.19507631659507751,0.8526886105537415,-0.5599483847618103,0.2897416055202484,-0.24540546536445618,-0.42314276099205017,-0.05098783224821091,0.4379066526889801,-0.2759595811367035,-0.22649814188480377,-1.2100303173065186,0.39847642183303833,-0.020702440291643143,-0.3540109395980835,-0.6584524512290955,0.054326195269823074,0.012670782394707203,0.6232720017433167,-0.6753678321838379,-1.0814515352249146,-0.6361122727394104,-0.7513017654418945,0.05515974387526512,-0.231734961271286,0.3976026475429535,1.0204863548278809,0.1507217437028885,0.2597658634185791,0.0856558158993721,0.036790285259485245,-0.8594413995742798,-0.21032936871051788,0.15076304972171783,0.20033439993858337,0.44588503241539,0.48012855648994446,-0.26905688643455505,0.5784869194030762,-0.04607478529214859,0.32399818301200867,0.3968595564365387,-0.2970239520072937,0.1490800976753235,-0.6869328022003174,-0.6418521404266357,0.4022412896156311,-0.23247773945331573,0.21424628794193268,0.2738816738128662,0.06439698487520218,-0.5175642371177673,0.9076111316680908,0.25731560587882996,0.029545100405812263,-0.7176925539970398,-0.6034326553344727,-0.5075609087944031,-0.009500143118202686,-0.119570791721344,-0.34749019145965576,0.14824511110782623
symptom::bụng chướng,0.41326650977134705,-0.25954991579055786,0.295945942401886,0.009967701509594917,0.7173078656196594,-0.49116048216819763,0.6633182764053345,-0.11360888928174973,-0.6651456952095032,-0.33821284770965576,0.47003448009490967,-0.3918702006340027,-0.6538154482841492,-0.33758407831192017,0.8677232265472412,0.0852784588932991,-0.36807194352149963,-0.5393658876419067,0.2179936319589615,0.5646945238113403,1.1457332372665405,0.19317838549613953,-0.8811280727386475,-0.9230995774269104,-0.3595600128173828,0.6056913733482361,-0.08850309252738953,0.19532454013824463,0.9807615876197815,0.009781417436897755,0.06625986099243164,0.19116243720054626,0.2552751302719116,-0.36031046509742737,-0.2207242250442505,-0.30467796325683594,-0.3472241461277008,0.6655364036560059,0.5320317149162292,0.10481264442205429,0.303072452545166,0.3010469675064087,-0.04679678753018379,0.7572944760322571,0.07713373750448227,-0.3591362535953522,-0.3092695474624634,-0.13897880911827087,-0.1365046203136444,-0.035634737461805344,-0.23461395502090454,0.06652231514453888,0.6152080297470093,0.25051170587539673,0.645488977432251,0.18780972063541412,0.5291823744773865,-0.8306999206542969,0.04131520912051201,-0.8143964409828186,0.08863925188779831,-0.2864800989627838,-0.2072940468788147,-0.310195654630661
symptom::phồng rộp,-0.34870824217796326,-0.9499874114990234,0.004173118621110916,0.9429863095283508,0.239688441157341,-0.42575782537460327,-0.09850645810365677,0.09611896425485611,-0.4698442816734314,0.8467593193054199,-0.0822615996003151,-0.2783701419830322,-0.4661791920661926,-0.7009900808334351,-0.09076502919197083,-0.1958712339401245,-0.9204623103141785,-0.5093827247619629,0.43636825680732727,0.7493653297424316,0.37637755274772644,-0.10869533568620682,-0.16926948726177216,-0.7257188558578491,-0.1809091717004776,0.6203057169914246,-0.47901806235313416,0.2966468930244446,0.005707728210836649,0.029527822509407997,-0.09310222417116165,-0.26807457208633423,-0.2259228676557541,-0.45704853534698486,-0.12984420359134674,-0.10655912011861801,-0.13941462337970734,-0.8343936204910278,0.5776903629302979,-0.47942328453063965,-0.5792661905288696,0.4064196050167084,-0.13794302940368652,-0.22430042922496796,0.02153642103075981,0.5203309655189514,-0.19639839231967926,-0.1783931702375412,-0.48292699456214905,0.09406135976314545,-0.08626828342676163,0.48081254959106445,-0.1726611703634262,0.5365445613861084,0.5661576390266418,0.7015888690948486,-0.7635407447814941,-0.557887613773346,-0.2224806398153305,0.32454702258110046,-0.7855634689331055,-0.7561861872673035,0.1038333922624588,0.05006173253059387
symptom::vã mồ hôi,-0.2691192924976349,-0.11764411628246307,0.01028066873550415,0.10212721675634384,0.2763897180557251,-0.6463372111320496,0.26579082012176514,0.024442359805107117,-0.1977330446243286,0.7022994756698608,0.4771421253681183,-0.7609956860542297,-0.3956856429576874,0.32482022047042847,0.21712490916252136,0.5250464081764221,-0.5563488006591797,0.08282610774040222,0.5493539571762085,0.34104329347610474,0.6652261018753052,0.20723405480384827,-0.7168694138526917,-0.31677669286727905,-0.3302935063838959,0.08407225459814072,-0.08942587673664093,0.11783809214830399,0.3483518362045288,-0.670179545879364,0.015671107918024063,-0.099007748067379,-0.17240290343761444,-0.49172496795654297,-0.012139474973082542,-0.5250663757324219,0.25709885358810425,-0.21283887326717377,-0.35683348774909973,0.28034093976020813,0.08456261456012726,0.539990246295929,0.20891085267066956,0.43952569365501404,0.38857635855674744,0.4755295515060425,-0.8875415325164795,0.13600032031536102,0.8293554782867432,0.8470880389213562,0.4181750416755676,0.6223782896995544,0.035053517669439316,-0.9307729601860046,0.2217436581850052,0.2689990699291229,0.3579882085323334,-0.8082847595214844,-0.4027668237686157,0.43162015080451965,0.011402304284274578,0.1672893911600113,-0.1108149066567421,0.5820526480674744
symptom::đau khi vận động,-0.19499823451042175,-0.01523665152490139,0.5569788813591003,-0.619402289390564,0.29771319031715393,-1.4486949443817139,0.34343647956848145,0.3289884924888611,0.20847906172275543,0.4500827491283417,0.45201295614242554,-0.7134313583374023,-0.693926990032196,-1.0050601959228516,0.661795437335968,0.5419864654541016,-0.08485815674066544,-0.6167881488800049,0.4419342279434204,0.03875533118844032,0.5128286480903625,-0.7592302560806274,0.22035270929336548,0.24831894040107727,-0.1782822459936142,0.4925071895122528,0.23192429542541504,-0.2087402492761612,-0.27603310346603394,-0.02481931634247303,0.330526202917099,0.4187377989292145,-0.28084707260131836,-0.5818390250205994,0.1481175273656845,0.4024161994457245,-0.4848574995994568,0.05902552604675293,0.2072734236717224,-0.071597158908844,-0.4736490547657013,0.670176088809967,0.7302570939064026,0.305215984582901,0.7297608256340027,0.4937364161014557,0.4193778336048126,-0.48506805300712585,0.7252936959266663,0.03440836817026138,0.15296941995620728,0.6553215980529785,-0.2818599343299866,0.43274179100990295,0.6327319741249084,0.5663623213768005,-0.07049638032913208,-0.48565754294395447,-0.658342182636261,0.08988960087299347,-0.4089421331882477,-1.2939754724502563,0.07256211340427399,-0.573704183101654
symptom::cứng cổ,0.02843293733894825,-0.45906901359558105,1.4510095119476318,0.17006812989711761,0.3434513509273529,0.0695110559463501,0.14249487221240997,0.28015032410621643,0.46046528220176697,1.3634861707687378,0.4670451879501343,-0.7319821119308472,-1.285355567932129,-1.0440871715545654,1.3254008293151855,-0.23506495356559753,-0.5534005165100098,-0.6107069253921509,0.15187178552150726,0.11404458433389664,0.7986887693405151,0.1533019095659256,-0.08093103021383286,-0.37557119131088257,-0.9928978681564331,0.39214953780174255,-0.31068962812423706,-0.3680669367313385,0.577481210231781,0.23509298264980316,0.20754839479923248,0.6410161256790161,-0.12419109791517258,-1.4229624271392822,-0.41993600130081177,-0.13708338141441345,-0.11239776015281677,-0.3762698769569397,0.2774081528186798,-0.20244072377681732,0.2476367950439453,0.5207701325416565,0.17212848365306854,-0.12702448666095734,0.4847542941570282,-0.008272172883152962,-0.685350775718689,0.2794748842716217,-0.21621571481227875,0.39909249544143677,-0.03273656591773033,0.452738493680954,0.5255930423736572,0.3958001136779785,-0.11446874588727951,1.0610909461975098,0.004015080165117979,-0.06102769076824188,0.2548401951789856,0.23701052367687225,-0.582754909992218,-0.11170396208763123,-0.40971967577934265,0.17307041585445404
symptom::ít triệu chứng,0.3713393211364746,-0.40275195240974426,-0.2054775506258011,0.47788575291633606,0.13126547634601593,-1.1735045909881592,0.32905951142311096,0.4477108120918274,-0.054650552570819855,1.1576699018478394,-0.054021965712308884,-0.5303220748901367,-0.9553540349006653,-1.1609070301055908,-0.026631560176610947,0.8060726523399353,0.5418331623077393,-0.1627906709909439,-0.29333364963531494,-0.43284937739372253,0.5755617618560791,0.6725996732711792,-0.11589492112398148,-0.27200084924697876,-0.7524573802947998,0.6705710291862488,-0.48099592328071594,-0.24196173250675201,0.8883194327354431,-0.47271308302879333,-0.14607563614845276,0.05826108530163765,0.229701429605484,-0.6408266425132751,0.7503897547721863,-0.018955048173666,-0.331607848405838,0.1560199111700058,0.06607437133789062,0.2557719051837921,0.4727286398410797,0.970740020275116,0.36705610156059265,0.41320326924324036,0.5329439043998718,-0.2625480592250824,-0.525477945804596,-0.4609483480453491,0.09403427690267563,0.617864727973938,0.1612367182970047,-0.13302293419837952,0.6328874826431274,1.041979432106018,0.9237370491027832,0.881827175617218,-0.48170313239097595,-0.967713475227356,-0.6437926292419434,-0.019869007170200348,-1.0793991088867188,-0.05499795451760292,0.2724095582962036,-0.5004521608352661
symptom::tiểu nhiều,0.47728753089904785,0.03693963587284088,0.5996500253677368,0.38437706232070923,-0.011292217299342155,-0.9646814465522766,-0.002579989843070507,-0.12936431169509888,-0.3275158107280731,0.4727860987186432,0.5216773748397827,0.15478858351707458,-0.9523130655288696,-0.056254539638757706,0.6973299384117126,-0.15286743640899658,-0.506497323513031,-0.17761839926242828,-0.19395475089550018,-0.6382336616516113,0.4215472936630249,0.23641905188560486,-0.6275837421417236,-0.44805818796157837,-0.07008524984121323,0.36948204040527344,-0.15639141201972961,0.46759745478630066,0.06133256480097771,-0.35645556449890137,-0.5294523239135742,-0.5123680233955383,0.3621392548084259,-0.5814993977546692,0.13929632306098938,-0.506134033203125,0.3946024775505066,0.43377265334129333,0.1274578869342804,0.21359507739543915,-0.021900268271565437,0.09747753292322159,0.5803528428077698,0.10723965615034103,0.40394896268844604,0.43965086340904236,-0.5162543654441833,-0.06413474678993225,0.2545469105243683,0.8003533482551575,-0.35068991780281067,0.46708062291145325,0.16341641545295715,-0.5266242027282715,0.9871054887771606,0.3614747226238251,0.17639696598052979,-0.3929286003112793,-0.08231128752231598,0.3596671223640442,0.21385976672172546,-0.48491615056991577,-0.3046393394470215,0.8852562308311462
symptom::nói khó,-0.23549559712409973,0.42366769909858704,0.4812498986721039,-0.21166972815990448,-0.14162443578243256,-0.7995192408561707,-0.12510184943675995,0.1749994307756424,0.049046941101551056,0.14644692838191986,0.6306928992271423,-0.015505753457546234,-0.2599738836288452,-0.5935877561569214,0.6596908569335938,-0.07790759950876236,-0.17396286129951477,-0.39457210898399353,-0.3733353018760681,0.04332156106829643,0.06429116427898407,0.3918308615684509,-0.04959236457943916,-0.32479217648506165,-0.17338041961193085,0.6313552856445312,0.1561695784330368,0.6702149510383606,0.9087284207344055,0.16008269786834717,-0.20811262726783752,-0.17678268253803253,-0.36426761746406555,-1.3252313137054443,0.9439915418624878,0.5359774231910706,-0.6778188347816467,-0.04813074693083763,-0.027340857312083244,-0.1969684511423111,-0.4714718759059906,0.823777973651886,0.27064841985702515,0.134907528758049,-0.055049434304237366,-0.5800540447235107,-0.1343896985054016,-0.8667559027671814,-0.23767957091331482,0.34371259808540344,0.7435950636863708,-0.4311877489089966,-0.3275836408138275,0.613135039806366,0.1622508317232132,1.0509588718414307,-0.25352001190185547,-1.2873163223266602,0.6700206398963928,0.6262381076812744,0.021172892302274704,-0.1586085855960846,-0.08488578349351883,0.18427012860774994
symptom::khó tập trung,0.1221032440662384,0.2314199060201645,0.5774202942848206,-0.14775791764259338,0.1635381579399109,-0.44058096408843994,-0.039741501212120056,0.18642844259738922,-0.37740853428840637,0.7179257273674011,0.536274790763855,-0.24694474041461945,-0.8539146184921265,0.4688933193683624,-0.2952282130718231,0.03965315967798233,-0.34739363193511963,0.48952895402908325,0.029536157846450806,-0.671733558177948,0.8583666682243347,0.3474382758140564,-0.3211557865142822,-0.43119749426841736,-0.13368143141269684,-0.17926537990570068,0.38501861691474915,0.5814245939254761,0.13240601122379303,-0.7802199125289917,-0.23524197936058044,-0.3050891160964966,-0.5514140725135803,-0.9132777452468872,0.05765927955508232,0.2088686227798462,0.32385972142219543,0.08782819658517838,0.6483277082443237,-0.19809569418430328,0.36154982447624207,0.8368942737579346,0.4334799647331238,0.06919257342815399,-0.010355017147958279,0.5615440607070923,0.23970597982406616,-0.3426108658313751,0.30195802450180054,0.403425008058548,-0.025544365867972374,0.5509881377220154,-0.058724429458379745,-0.5159916877746582,0.7183396220207214,0.23527118563652039,0.3619341254234314,-0.5938704013824463,0.12216279655694962,0.09817273914813995,0.12033989280462265,0.142654150724411,-0.49497339129447937,-0.031036708503961563
symptom::mỡ máu cao,0.37553641200065613,-0.38239216804504395,-0.18429964780807495,0.4970341622829437,0.14939385652542114,-1.1761029958724976,0.2894340753555298,0.4510841965675354,-0.10849235206842422,1.135144591331482,-0.051976002752780914,-0.5602845549583435,-0.9749204516410828,-1.121751308441162,0.0030221762135624886,0.8400423526763916,0.5056298971176147,-0.1668778508901596,-0.25957849621772766,-0.4558041989803314,0.5842217803001404,0.655256986618042,-0.13026872277259827,-0.25303155183792114,-0.7886586785316467,0.6988627910614014,-0.44822773337364197,-0.24215777218341827,0.8937718272209167,-0.41660434007644653,-0.1850653439760208,0.0834130197763443,0.2523519694805145,-0.6696025729179382,0.7688957452774048,-0.030070481821894646,-0.33635830879211426,0.13690295815467834,0.04414593428373337,0.26893630623817444,0.5262115001678467,0.9649454355239868,0.34364983439445496,0.41299688816070557,0.5036015510559082,-0.2649514675140381,-0.5274505019187927,-0.4285101294517517,0.044111963361501694,0.6292170882225037,0.20129448175430298,-0.14827591180801392,0.6625644564628601,1.0422523021697998,0.9210472702980042,0.8864490389823914,-0.470032662153244,-0.9917894005775452,-0.6726399064064026,-0.013472102582454681,-1.0783272981643677,-0.05618301406502724,0.2637414038181305,-0.5028185248374939
symptom::đau gối,-0.10127458721399307,-0.06635842472314835,0.7370178699493408,-0.6070008873939514,0.32707005739212036,-0.4203811287879944,0.08480867743492126,0.08469858020544052,0.17322224378585815,1.204988718032837,0.482769250869751,-0.18396756052970886,-1.195120096206665,-0.4665684998035431,0.6780907511711121,0.13146339356899261,0.13169212639331818,-0.27942928671836853,0.47171926498413086,0.09744933247566223,0.7479551434516907,-0.7106621861457825,-0.4947889745235443,0.17503239214420319,-0.12279550731182098,0.7563820481300354,-0.04816987365484238,0.2012459635734558,0.40893206000328064,-0.4616355299949646,0.44159242510795593,0.5129793882369995,0.041122663766145706,-0.25757864117622375,0.43358296155929565,-0.002518417313694954,0.12014520168304443,-0.0537625290453434,-0.05597570538520813,0.046633437275886536,-1.025993824005127,0.5900418162345886,-0.2043437510728836,1.0008196830749512,0.862388551235199,-0.27455106377601624,0.23942264914512634,-0.4644203782081604,-0.5576480627059937,-0.5766121745109558,0.23434606194496155,0.2638654112815857,-0.7482595443725586,0.2782072126865387,1.107932209968567,1.0944081544876099,0.013684472069144249,-0.3691282868385315,-0.9383319020271301,0.1268053650856018,-0.3061739504337311,-0.7139529585838318,-0.012683294713497162,0.19247204065322876
symptom::giọng khàn,-0.1766705960035324,0.33620524406433105,0.5450071096420288,-0.31270891427993774,-0.011278155259788036,-0.701768696308136,-0.13892368972301483,0.1323389708995819,0.12788064777851105,0.20931880176067352,0.5275636911392212,-0.08553313463926315,-0.19490684568881989,-0.5409250855445862,0.6529734134674072,-0.012706227600574493,-0.31048130989074707,-0.42923665046691895,-0.49174121022224426,0.23590323328971863,0.20788906514644623,0.40462154150009155,-0.06969153881072998,-0.3929893672466278,-0.1969539374113083,0.5997647643089294,0.2638033926486969,0.7181159257888794,1.0157437324523926,0.1367706060409546,-0.2812551259994507,-0.11496526747941971,-0.2659263610839844,-1.2216259241104126,0.9013446569442749,0.46890807151794434,-0.7201383113861084,0.06271467357873917,-0.02964795008301735,-0.22523653507232666,-0.42342549562454224,0.7764500975608826,0.11507564038038254,0.13051223754882812,-0.0815965086221695,-0.7919272780418396,-0.20397020876407623,-0.8673956990242004,-0.3511122167110443,0.29104623198509216,0.6871688365936279,-0.353882372379303,-0.32752057909965515,0.6581035852432251,0.05051415413618088,0.9672175645828247,-0.2277730405330658,-1.177049994468689,0.675355076789856,0.6234943866729736,0.051608748733997345,-0.34492433071136475,0.12793700397014618,0.15829187631607056
symptom::buồn bã,-0.3263308107852936,-0.2120995819568634,-0.3317544162273407,-0.41566941142082214,0.0578637532889843,-0.4069536030292511,0.5217262506484985,-0.5944919586181641,-0.13039113581180573,0.8179479241371155,0.7564201951026917,-0.186631977558136,-1.274793267250061,-0.3904038667678833,-0.24788694083690643,-0.5192658305168152,0.10751599073410034,-0.049550946801900864,-0.11909792572259903,0.3207918107509613,0.4921964704990387,0.07570701092481613,0.06967165321111679,-1.1994130611419678,-1.0583879947662354,1.0783357620239258,-0.060915667563676834,0.25794872641563416,0.3403022289276123,-0.13147154450416565,0.16682253777980804,-0.5461786389350891,-0.2202894240617752,-0.6791203618049622,-0.1262640804052353,0.15251274406909943,-0.3811655640602112,-0.14357775449752808,-0.8544566631317139,0.5610701441764832,-0.38946229219436646,-0.042314715683460236,-0.07220489531755447,-0.11483846604824066,0.4093731939792633,0.7494248151779175,-0.5183051228523254,-0.49017924070358276,0.6883083581924438,0.4175487756729126,-0.17938967049121857,0.7259234189987183,0.28586751222610474,0.5294123291969299,-0.17111553251743317,1.3260241746902466,0.29429876804351807,-0.8697655200958252,-0.43684932589530945,0.40749356150627136,0.4005385935306549,-0.5647941827774048,0.19342219829559326,0.18881365656852722
symptom::hồi hộp,0.10544624924659729,-0.322246789932251,-0.18994899094104767,0.07724351435899734,-0.28396645188331604,-0.12029767781496048,0.2917495369911194,-0.36281031370162964,-0.3699038028717041,0.7264448404312134,0.6409333348274231,-0.10007613152265549,-0.3289927542209625,-0.21646316349506378,0.0726189911365509,0.16408531367778778,0.2230863869190216,-0.1132177859544754,0.6371887922286987,0.05663997307419777,0.6152271032333374,0.1597045212984085,-0.37881067395210266,-0.7255284786224365,-0.4924367666244507,0.558042049407959,0.40676209330558777,0.27506959438323975,0.1718749701976776,-0.4864404499530792,0.260756254196167,-0.22848744690418243,-0.1661752313375473,-0.49555474519729614,0.11104504019021988,0.03058929741382599,-0.11371389031410217,0.026741022244095802,-0.32434186339378357,0.1672012060880661,-0.15945948660373688,0.6702880859375,0.08891493082046509,0.41573071479797363,0.37323370575904846,1.0013271570205688,-0.7004489302635193,0.08218574523925781,1.0612094402313232,0.8700831532478333,0.3326171338558197,0.31928718090057373,0.5506938695907593,-0.8696759939193726,0.40341782569885254,0.44328075647354126,0.13714151084423065,-0.9218810796737671,-0.6503559350967407,0.7940036654472351,-0.010503879748284817,0.040806449949741364,-0.37090933322906494,0.353609561920166
symptom::sưng nóng,-0.499324232339859,-0.23723067343235016,0.453467458486557,-0.044628214091062546,0.19079425930976868,-0.2571583092212677,0.6590948700904846,0.13315461575984955,-0.012936640530824661,0.6850374341011047,0.5143384337425232,-0.5591863393783569,-0.9786304831504822,-0.20069360733032227,0.5511143207550049,-0.061130624264478683,0.09636762738227844,-0.030358687043190002,0.3135896921157837,0.28226494789123535,1.0688523054122925,-0.2709183394908905,-0.5673439502716064,-0.04289349541068077,-0.6043291091918945,0.22632117569446564,-0.328071266412735,-0.2826809287071228,0.02786652371287346,-0.3215716481208801,-0.02159831114113331,0.8562399744987488,-0.02959068864583969,-0.8077314496040344,1.1039683818817139,0.28371861577033997,0.24350182712078094,0.7082526087760925,-0.25913119316101074,-0.20726893842220306,-0.4759947955608368,0.11920958757400513,0.07446955889463425,0.08882640302181244,0.7324032783508301,0.35606616735458374,0.21295107901096344,-0.5219445824623108,0.46819815039634705,0.5185324549674988,0.1914607733488083,0.6214280724525452,-0.4918079376220703,0.6054175496101379,0.873984694480896,-0.07620249688625336,-0.5744858980178833,-0.12754207849502563,-0.6827965974807739,0.3169044256210327,0.11425597965717316,-1.2237915992736816,0.23421472311019897,0.12487942725419998
symptom::mất mùi vị,-0.49266526103019714,0.12474092096090317,0.0694909393787384,0.20544596016407013,0.04024762287735939,-0.7757172584533691,-0.4271131753921509,-0.30162230134010315,-0.2537885010242462,-0.2505888044834137,0.6236225366592407,-0.1235402524471283,0.008075959049165249,-0.6532974243164062,0.17566674947738647,0.5079210996627808,-0.4687138497829437,0.05529787391424179,0.7411773204803467,-0.0943162739276886,0.4419953525066376,0.5241523385047913,0.2670495808124542,-0.6503652334213257,-0.13064944744110107,0.31135910749435425,-0.25200963020324707,0.7675368189811707,0.3466522991657257,-0.1857593059539795,-0.06392673403024673,-0.34453874826431274,-0.7094594240188599,-0.8609384298324585,0.19986681640148163,0.27236035466194153,-0.377630352973938,0.24195758998394012,0.23654064536094666,-0.0787101686000824,0.04628520458936691,0.817947506904602,-0.17025625705718994,0.014821793884038925,0.4999893009662628,-0.5877935886383057,0.1543048769235611,-0.5908907055854797,-0.27624666690826416,0.06973922252655029,0.8379959464073181,-0.5420618057250977,-0.3773247301578522,0.4984705150127411,-0.09364531934261322,0.8472169637680054,-0.348580926656723,-0.8395992517471313,0.5555891990661621,0.3261137008666992,-0.2962183356285095,0.11824202537536621,-0.31164878606796265,0.2339872270822525
symptom::ngứa niệu đạo,0.12577874958515167,0.8068308234214783,0.9983486533164978,0.15849189460277557,-0.34096914529800415,-0.6064932942390442,0.2086295783519745,-0.7251638174057007,-0.10852478444576263,0.7600560784339905,1.100573182106018,-0.2543090879917145,0.3395085036754608,-0.501830518245697,-0.06466542929410934,0.7081801891326904,-0.4983864426612854,0.25821495056152344,0.21345672011375427,0.44550684094429016,0.430476576089859,0.13975584506988525,0.00675942050293088,-0.7941230535507202,-0.65544193983078,0.8386237621307373,-0.3924034535884857,0.3479807376861572,-0.700080394744873,-0.08678820729255676,0.12331687659025192,0.23200489580631256,-0.7846472859382629,-0.664386510848999,-0.3892190754413605,0.14463460445404053,0.4578933119773865,0.15031275153160095,0.46901482343673706,0.6784286499023438,-0.37901875376701355,0.5367934703826904,0.1670200079679489,0.030405528843402863,0.40850594639778137,0.2390766590833664,-0.5805606245994568,-0.5152719020843506,-0.7348256707191467,-0.22505192458629608,0.367310106754303,0.22161760926246643,-0.4489291310310364,0.5844483375549316,-0.1657295823097229,0.34119489789009094,-0.1948411911725998,-0.4044782817363739,-0.4249664545059204,0.13559944927692413,-0.10939644277095795,-0.0980914980173111,-0.2586987018585205,-0.31993168592453003
symptom::đói,-0.37829115986824036,-0.07137782871723175,0.17336687445640564,0.1714795082807541,0.49080562591552734,-0.8424971103668213,0.40516573190689087,0.08218061923980713,-0.02719671092927456,0.6413500308990479,0.5265746712684631,-0.8851179480552673,-0.43220263719558716,0.3751145005226135,0.3824903964996338,0.610438883304596,-0.4955359399318695,0.0753699243068695,0.5423110723495483,0.09320811182260513,0.44663867354393005,0.05402886122465134,-0.8343693614006042,-0.2521340548992157,-0.17223559319972992,0.07306802272796631,-0.28007790446281433,0.1405095010995865,0.31163907051086426,-0.624997079372406,-0.0007519168430007994,-0.14606663584709167,-0.147776260972023,-0.6409025192260742,0.051866013556718826,-0.29889601469039917,0.06587965041399002,0.014776566997170448,-0.027654128149151802,0.16219313442707062,0.09518628567457199,0.40007561445236206,0.33084478974342346,0.29012247920036316,0.46552544832229614,0.29408013820648193,-0.5312816500663757,0.11537675559520721,0.7058626413345337,0.9145382046699524,0.5400905609130859,0.43300479650497437,-0.0384037010371685,-1.080309271812439,0.35126811265945435,0.08176807314157486,0.22566315531730652,-1.0171802043914795,-0.4614514112472534,0.40311112999916077,0.033608999103307724,0.3222161829471588,-0.3756861388683319,0.6440033316612244
disease::BENH073,-0.3219372034072876,-0.09279124438762665,0.5852019786834717,-0.6278079152107239,0.5799293518066406,-0.4571189284324646,0.059871334582567215,-0.021317174658179283,-0.045823004096746445,1.1889355182647705,-0.19776982069015503,-0.730586051940918,-1.3987953662872314,-1.1207166910171509,0.5725265741348267,0.45607468485832214,-0.22417110204696655,0.09122373908758163,-0.14153610169887543,0.8945528268814087,0.7662498950958252,-0.0063990140333771706,-0.8715265989303589,-1.2589067220687866,-0.08523228019475937,-0.3667750656604767,-0.8302798271179199,0.06644317507743835,0.057380493730306625,0.07787913829088211,-0.9694331288337708,-0.6011987924575806,-0.412853479385376,-1.3401846885681152,0.0716802105307579,-0.20018382370471954,-0.17430877685546875,-0.8471629619598389,-0.0250046756118536,-0.06272830814123154,0.9073657393455505,0.9253492951393127,-0.5521233677864075,0.942151665687561,-0.13717705011367798,1.0271434783935547,-0.37594014406204224,-0.5505331158638,-0.3888280987739563,0.08204054087400436,1.2495944499969482,1.4956837892532349,0.2361278235912323,0.39743363857269287,0.3362046182155609,0.26873672008514404,0.37358716130256653,-0.011643496342003345,-0.014333447441458702,0.4119203984737396,-1.0417946577072144,-0.534496009349823,0.7765374779701233,-0.030292542651295662
disease::BENH105,-0.5907661318778992,0.032047491520643234,0.3381843566894531,-0.4034618139266968,0.41057056188583374,0.1484367549419403,0.14398622512817383,-0.0787791833281517,-0.49144479632377625,1.5709420442581177,-0.1830989569425583,-1.0264475345611572,-0.6618333458900452,-0.9969922304153442,0.8523187041282654,0.15649402141571045,-0.0071386732161045074,-0.005914393812417984,0.8463243246078491,-0.04082268849015236,0.8544167280197144,-0.37512490153312683,-0.21013270318508148,-0.30858245491981506,-1.2651021480560303,0.348747581243515,-1.2429277896881104,-0.19462084770202637,-0.7082986235618591,-0.17921392619609833,-0.706701934337616,-0.18004600703716278,0.17342989146709442,-0.38786935806274414,-0.7975144386291504,0.5404268503189087,-0.392284631729126,0.6061949133872986,-0.3497646749019623,0.5083938837051392,0.6051284074783325,1.01803719997406,-0.03311508148908615,-0.14602570235729218,0.5190062522888184,0.006494769360870123,-0.4524780809879303,-0.538486659526825,-0.455973356962204,0.6479569673538208,0.32932403683662415,1.2401777505874634,0.44105055928230286,0.3580065071582794,0.663076639175415,1.2591346502304077,-0.8239807486534119,-1.2318809032440186,0.8539655208587646,0.02134663052856922,0.8485453128814697,-1.310517430305481,-0.4175090491771698,0.4320727288722992
symptom::đau đầu một bên,-0.2870425581932068,-0.06713218241930008,-0.24246501922607422,0.013959468342363834,0.3360300362110138,-0.08721545338630676,0.18218009173870087,-0.4985603392124176,0.08403400331735611,0.4266187250614166,0.22656573355197906,0.02714104950428009,-0.09653832018375397,-0.6673752665519714,0.5307188034057617,-0.028948163613677025,-0.27435001730918884,-0.16957098245620728,0.12175887823104858,0.05140018090605736,0.9866034984588623,-0.3281884491443634,-1.3718472719192505,-0.794890284538269,-0.46421921253204346,0.0635513961315155,-0.8617791533470154,-0.2691870331764221,0.9228559732437134,-0.6762466430664062,0.4128431975841522,-0.28548291325569153,-0.07632875442504883,-0.7757987976074219,-0.20196159183979034,0.4490821063518524,-0.24453438818454742,-0.09067845344543457,-0.161502867937088,0.11103327572345734,0.3910118043422699,0.45133307576179504,0.5877428650856018,0.004911658354103565,-0.1563974767923355,0.33173811435699463,-0.11449553072452545,-0.9748900532722473,-0.04547566547989845,-0.3731798231601715,-0.06887397915124893,0.3556472659111023,0.23686428368091583,-0.7312251329421997,1.0651339292526245,0.3936454951763153,0.23432594537734985,-0.19130603969097137,-0.1875021904706955,-0.17541533708572388,0.2150900512933731,-0.21300825476646423,-0.7868812084197998,0.8547447919845581
symptom::tiểu ít,0.47540634870529175,0.23248054087162018,0.32870641350746155,0.2883928120136261,0.5661405324935913,-0.402300626039505,0.23661091923713684,-0.20517902076244354,-0.3815581500530243,0.24628272652626038,0.6369835138320923,0.2509429454803467,-0.3476429879665375,0.08594752103090286,0.29040905833244324,-0.06008545309305191,-0.5061385631561279,-0.2565711438655853,0.08999074995517731,0.08392824977636337,1.2806185483932495,0.28725719451904297,-1.096264362335205,-0.9541324973106384,-0.5180734992027283,-0.06125650927424431,-0.43756717443466187,0.46425867080688477,0.36611291766166687,-0.41563522815704346,0.5822253227233887,0.07546400278806686,0.28952300548553467,-0.36596325039863586,-0.08312614262104034,0.09228218346834183,-0.16903729736804962,0.06396957486867905,-0.055032841861248016,0.1202857568860054,0.21384963393211365,0.2528493106365204,0.2708284854888916,0.006744183599948883,0.30112236738204956,0.0689256563782692,-0.28411537408828735,-0.41512250900268555,0.446388304233551,0.4782383143901825,-0.2679028809070587,0.6212177872657776,0.09548132121562958,-0.5490247011184692,0.389036625623703,-0.4022841155529022,0.8703063726425171,-0.5669806003570557,-0.12386853992938995,-0.010910035111010075,-0.032270729541778564,-0.47665125131607056,-0.4182378351688385,0.04798692837357521
symptom::sưng khớp,-0.3921165466308594,-0.06624359637498856,0.4766443073749542,-0.10086285322904587,0.20927733182907104,-0.7313851714134216,0.17120516300201416,0.17256319522857666,-0.07756788283586502,0.6645932793617249,0.30837497115135193,-0.13756689429283142,-1.2519629001617432,-0.40791064500808716,0.5533178448677063,0.0017933833878487349,0.33515825867652893,0.005507518071681261,0.7386016845703125,0.058017436414957047,0.6288551092147827,-0.09032727032899857,-0.8278777599334717,0.2349151074886322,-0.33686739206314087,0.2965938150882721,0.00963624007999897,0.08516456931829453,-0.16488684713840485,-0.8058900833129883,0.19343093037605286,0.44222816824913025,-0.28493133187294006,-0.5600957870483398,0.6842938661575317,-0.09162584692239761,0.43180394172668457,0.5486746430397034,-0.09541104733943939,-0.22907176613807678,-0.4074347913265228,0.04353943467140198,0.5189763903617859,0.31505364179611206,0.7681929469108582,0.28221043944358826,-0.01752319373190403,-0.09870165586471558,0.0717993751168251,0.3183601498603821,0.22061511874198914,0.14646469056606293,-0.8079653978347778,-0.4737297594547272,0.8647627830505371,0.4371688961982727,0.4047345221042633,-0.20151865482330322,-0.3263019919395447,-0.24667033553123474,0.028229020535945892,-0.9349774122238159,-0.04266887158155441,0.07504934072494507
symptom::mất hứng thú,-0.49781712889671326,-0.31114500761032104,-0.38317444920539856,-0.5340608358383179,0.10208743065595627,-0.5234634876251221,0.33960944414138794,-0.5581887364387512,-0.2104446142911911,0.5926023125648499,0.784680962562561,-0.07824521511793137,-1.234656810760498,-0.6818236112594604,-0.36336809396743774,-0.553806483745575,0.0790928304195404,-0.22541625797748566,-0.1478879302740097,0.5008853077888489,0.6283333897590637,0.018919600173830986,0.07019509375095367,-1.183847427368164,-1.1273161172866821,1.0874791145324707,-0.15022993087768555,0.15091316401958466,0.3720394968986511,-0.24298760294914246,0.15548379719257355,-0.5440203547477722,-0.29918503761291504,-0.885725736618042,-0.02151602879166603,0.41144195199012756,-0.4537805914878845,-0.35123708844184875,-0.7508392333984375,0.7464787364006042,-0.34763267636299133,-0.1304100602865219,-0.0701804831624031,-0.11078104376792908,0.411451518535614,0.5508925318717957,-0.6012706160545349,-0.7764500975608826,0.7614820599555969,0.03152285888791084,-0.2163555920124054,0.8781084418296814,0.31325575709342957,0.8239005208015442,-0.16416291892528534,1.5751371383666992,0.3059128224849701,-0.8167462348937988,-0.45553603768348694,0.4357213079929352,0.22202323377132416,-0.8263625502586365,0.25478944182395935,0.11913885921239853
symptom::phù,0.40595078468322754,0.44359514117240906,0.25606629252433777,0.17529283463954926,0.6417323350906372,-0.40184444189071655,0.31055471301078796,-0.07272180914878845,-0.3579995632171631,0.23192887008190155,0.49441659450531006,0.19841662049293518,-0.4657103717327118,0.06975862383842468,0.35819604992866516,-0.14531823992729187,-0.5205318331718445,-0.10658159852027893,0.09906522184610367,0.23694221675395966,1.3148276805877686,0.2644641101360321,-1.297751545906067,-0.7909025549888611,-0.4086291790008545,-0.16128243505954742,-0.1854672133922577,0.6866498589515686,0.4288150668144226,-0.39215078949928284,0.40294480323791504,-0.13768811523914337,0.371568500995636,-0.23637966811656952,-0.23471057415008545,0.14097477495670319,-0.159587100148201,0.21644605696201324,-0.1631731539964676,-0.02913575991988182,0.2947317659854889,0.4720289409160614,0.3590833842754364,-0.03562528267502785,0.16844165325164795,0.08055305480957031,-0.27241453528404236,-0.3445456922054291,0.4933878779411316,0.4049506187438965,-0.09190145879983902,0.7404556274414062,0.06996839493513107,-0.30035126209259033,0.3961300551891327,-0.28820541501045227,0.9184015393257141,-0.593840479850769,-0.13624922931194305,0.09501882642507553,0.007570745423436165,-0.4395882487297058,-0.5912246108055115,-0.03387627378106117
symptom::sợ ánh sáng,-0.19920873641967773,0.05859051272273064,-0.1396130621433258,-0.01073314156383276,0.3315112292766571,-0.076087586581707,0.1449621319770813,-0.4646656811237335,0.12808644771575928,0.33379948139190674,0.2622794806957245,0.14387626945972443,-0.20157493650913239,-0.6946069598197937,0.6452917456626892,-0.06241176649928093,-0.23824065923690796,-0.06394273042678833,0.05098528042435646,0.1535491645336151,1.1423709392547607,-0.359369158744812,-1.4013463258743286,-0.8694155216217041,-0.31246474385261536,0.14974179863929749,-0.923987090587616,-0.139731302857399,0.96547931432724,-0.6060370802879333,0.44845056533813477,-0.3231475353240967,-0.22040541470050812,-0.7068681120872498,-0.19799907505512238,0.43399906158447266,-0.27991583943367004,-0.1121734082698822,-0.010657592676579952,0.1270027905702591,0.46684643626213074,0.45799335837364197,0.6752744317054749,-0.05868373438715935,-0.3107002079486847,0.5986028909683228,-0.09553910046815872,-1.0020112991333008,-0.13632352650165558,-0.33934733271598816,-0.1543302685022354,0.4328693151473999,0.4159419536590576,-0.5305331349372864,1.0652573108673096,0.3548596203327179,0.2702602744102478,-0.16459661722183228,-0.1046752780675888,-0.08154291659593582,0.049074817448854446,-0.30509841442108154,-0.7447901964187622,0.8303810358047485
symptom::đau răng,-0.10149209946393967,-0.6574083566665649,0.27679842710494995,0.6982476115226746,0.30697184801101685,-1.0105568170547485,0.0462268628180027,-0.9329343438148499,0.021785244345664978,0.6329439282417297,-0.07648605853319168,-0.4414169192314148,-0.18960410356521606,-0.3727627992630005,0.5705792307853699,0.8521279692649841,-0.8135843276977539,0.839459240436554,-0.4441271126270294,0.12126342207193375,1.1324574947357178,0.4957614839076996,-0.17448100447654724,-1.0855344533920288,-0.29673105478286743,-0.03145414590835571,0.26775431632995605,-0.032996226102113724,0.162410169839859,-0.4028993844985962,-0.528702437877655,0.1759795844554901,-0.5568139553070068,-0.27260515093803406,0.40468505024909973,0.49280786514282227,-0.24014592170715332,0.6402973532676697,0.777519941329956,-0.713519811630249,-0.09560801833868027,0.5158296823501587,0.46530085802078247,-0.15824665129184723,0.11579390615224838,0.04735659062862396,-0.22045907378196716,0.08048685640096664,-0.2192327082157135,-0.03921918943524361,0.3189891278743744,-0.4304860830307007,-0.15814009308815002,1.018927812576294,0.41055113077163696,0.4384532868862152,-0.3604969382286072,-0.6557207107543945,-0.10211562365293503,0.7642238140106201,-0.1066020205616951,0.09708350151777267,-0.03474285081028938,0.49450385570526123
symptom::nghe kém,-0.43480587005615234,-0.26919758319854736,0.3666932284832001,0.29030537605285645,-0.1670466959476471,-0.2909218966960907,-0.4257274270057678,-0.40382513403892517,-0.018914872780442238,-0.1658620536327362,0.07209642976522446,0.46191784739494324,-0.04341735690832138,-0.21774931252002716,0.20148815214633942,0.3476371169090271,-0.4628237187862396,0.2495863437652588,0.3599046468734741,0.5010435581207275,0.3157421052455902,0.7256358861923218,-0.5953075885772705,-0.39038604497909546,-0.6744422912597656,0.2351367175579071,-0.6681040525436401,0.6436828970909119,0.26659420132637024,-0.2172001749277115,0.02479291707277298,0.11656162142753601,-0.0663783997297287,-1.0628619194030762,0.2367987483739853,-0.1848497837781906,0.32275208830833435,0.1419314593076706,0.4307246208190918,0.46403929591178894,1.0841952562332153,0.4177114963531494,0.37471383810043335,-0.568016529083252,0.6367375254631042,0.5343579649925232,-0.3679300844669342,-0.7789030075073242,0.20957452058792114,-0.15447916090488434,-0.1060577780008316,-0.07477415353059769,-0.44759222865104675,0.09043874591588974,-0.015219639986753464,0.793026864528656,0.13285012543201447,-0.7987809777259827,-0.3590063452720642,-0.02099434845149517,0.15924865007400513,-0.5217491388320923,-0.20949415862560272,0.7671130895614624
symptom::mệt mỏi,-0.4713761508464813,-0.27791523933410645,-0.35211360454559326,-0.4637283384799957,0.04401630908250809,-0.5176634788513184,0.334501177072525,-0.6746810078620911,-0.15523266792297363,0.6273107528686523,0.6729927062988281,-0.12100926041603088,-1.1877901554107666,-0.7292467951774597,-0.2726243734359741,-0.5031895041465759,0.10199510306119919,-0.20575882494449615,-0.12878654897212982,0.49545979499816895,0.6273741722106934,-0.023258615285158157,0.08265893161296844,-1.2051777839660645,-1.045374870300293,1.0521272420883179,-0.12407977133989334,0.13046444952487946,0.3109164237976074,-0.21880348026752472,0.17637483775615692,-0.5196983218193054,-0.30292248725891113,-0.7555431723594666,-0.06674274057149887,0.3852190673351288,-0.4473392367362976,-0.29016634821891785,-0.8076287508010864,0.6497994065284729,-0.41551318764686584,-0.04180467128753662,-0.12651988863945007,-0.03822217509150505,0.38051626086235046,0.6061067581176758,-0.6459141969680786,-0.709403932094574,0.7457203269004822,0.10841625183820724,-0.15307128429412842,0.8208405375480652,0.3410922884941101,0.801838755607605,-0.2521701157093048,1.4930998086929321,0.23659873008728027,-0.8038583397865295,-0.4742732048034668,0.4525620639324188,0.22247712314128876,-0.7366765141487122,0.24228161573410034,0.0410127192735672
symptom::đi tiểu nhiều về đêm,0.31683963537216187,-0.08549336344003677,0.15603892505168915,-0.5105069875717163,0.24688787758350372,-0.5460541248321533,0.7400001883506775,0.024045653641223907,-0.2990858852863312,0.8705506920814514,0.6260325908660889,0.14487558603286743,-0.9097810983657837,0.03260279819369316,0.08899394422769547,-0.3964005708694458,-0.07856301218271255,0.10637646168470383,0.4666478931903839,-0.32059767842292786,-0.08337074518203735,0.20812509953975677,-0.8792451620101929,-0.8418018817901611,-0.886810302734375,0.6463192701339722,0.04844098910689354,0.21165286004543304,0.04703226312994957,-0.11113297939300537,0.309741348028183,-0.25642678141593933,0.0490645132958889,-0.7843176126480103,0.17600680887699127,-0.10612798482179642,0.05853389576077461,0.31000030040740967,-0.3434186279773712,-0.00802873820066452,0.31305915117263794,-0.1060824990272522,0.2559833526611328,-0.1583324521780014,0.2541455626487732,0.6283413767814636,0.1695445328950882,-0.3485255241394043,0.0740816667675972,0.35648685693740845,0.3114258348941803,0.4108027517795563,0.18959985673427582,-0.3916749656200409,0.5224842429161072,0.3017520010471344,0.5973443388938904,-1.1437076330184937,-0.11518540978431702,0.6077831387519836,0.5193331837654114,-0.06287232786417007,-0.05333559960126877,0.3292649984359741
symptom::hắt hơi,-0.24887429177761078,-0.6021090745925903,0.007520643994212151,0.22115130722522736,0.44593513011932373,-0.5024376511573792,-0.46864333748817444,0.48473188281059265,-0.6972941160202026,0.210520938038826,0.2604532241821289,-0.5815736651420593,-0.4252469539642334,-0.03297068551182747,0.2523173987865448,0.16675733029842377,-0.42972907423973083,0.150593101978302,0.45109790563583374,-0.32005855441093445,0.21845689415931702,0.5929378271102905,-0.4971923828125,-0.8495946526527405,-0.14309130609035492,0.33280643820762634,-0.24551142752170563,-0.10425055027008057,0.1380985826253891,-0.562964677810669,0.20909859240055084,-0.4835268259048462,-0.06572641432285309,-0.8868111371994019,-0.2546880841255188,0.6685987710952759,0.043877243995666504,-0.14080335199832916,0.9724256992340088,-0.18516547977924347,-0.268339067697525,-0.0621923953294754,-0.35539987683296204,-0.25116807222366333,-0.12499266862869263,0.15707093477249146,-0.0872441753745079,-0.15964189171791077,-0.300098180770874,0.15815594792366028,0.555850625038147,1.3919296264648438,-0.4957689940929413,0.48600777983665466,0.38353240489959717,0.9911990165710449,-0.6119875907897949,-0.187655508518219,0.24126818776130676,0.5062083601951599,-0.34863215684890747,-0.05453449487686157,-0.30366823077201843,-0.686262845993042
symptom::da khô,-0.616550087928772,-0.35869309306144714,-0.1353771984577179,0.7023166418075562,0.20617057383060455,-0.7761034965515137,-0.8794949650764465,0.4669768214225769,-0.5929258465766907,0.9221689701080322,-0.05724175274372101,-0.6167001128196716,-0.05706854164600372,-0.01890787109732628,0.2635819911956787,-0.6068080067634583,-0.8070860505104065,-0.6998168230056763,0.04090649262070656,0.5081157684326172,0.9890397191047668,-0.45483940839767456,-0.22507788240909576,-0.7869840860366821,-0.16783563792705536,0.7690035104751587,-0.4139260947704315,-0.23768693208694458,-0.09761792421340942,-0.4811694920063019,-0.140607550740242,-0.3682611882686615,0.3409706652164459,-0.3079663813114166,0.04504020884633064,0.14455392956733704,-0.24550296366214752,-0.18249009549617767,0.29616227746009827,0.13511234521865845,-0.43554258346557617,0.7629342675209045,-0.5059510469436646,-0.059266671538352966,-0.3842449188232422,0.4629828929901123,0.43026551604270935,-0.10337238758802414,-0.5390885472297668,0.1657310575246811,0.05394669994711876,0.5650334358215332,-0.010812395252287388,0.2865588963031769,0.8890723586082458,0.9851141571998596,-0.7907756567001343,-0.6769934892654419,-0.43267568945884705,-0.3697797358036041,-0.03064825013279915,-0.6714992523193359,-0.0628616139292717,-0.17684826254844666
